tree
version=v4
num_class=1
num_tree_per_iteration=1
label_index=0
max_feature_idx=151
objective=binary sigmoid:1
feature_names=numero_de_cliente foto_mes active_quarter cliente_vip internet cliente_edad cliente_antiguedad mrentabilidad mrentabilidad_annual mcomisiones mactivos_margen mpasivos_margen cproductos tcuentas ccuenta_corriente mcuenta_corriente_adicional mcuenta_corriente ccaja_ahorro mcaja_ahorro mcaja_ahorro_adicional mcaja_ahorro_dolares cdescubierto_preacordado mcuentas_saldo ctarjeta_debito ctarjeta_debito_transacciones mautoservicio ctarjeta_visa ctarjeta_visa_transacciones mtarjeta_visa_consumo ctarjeta_master ctarjeta_master_transacciones mtarjeta_master_consumo cprestamos_prendarios mprestamos_prendarios cprestamos_hipotecarios mprestamos_hipotecarios cplazo_fijo mplazo_fijo_dolares mplazo_fijo_pesos cinversion1 minversion1_pesos minversion1_dolares cinversion2 minversion2 cseguro_vida cseguro_auto cseguro_vivienda cseguro_accidentes_personales ccaja_seguridad cpayroll_trx mpayroll mpayroll2 cpayroll2_trx ccuenta_debitos_automaticos mcuenta_debitos_automaticos ctarjeta_visa_debitos_automaticos mttarjeta_visa_debitos_automaticos ctarjeta_master_debitos_automaticos mttarjeta_master_debitos_automaticos cpagodeservicios mpagodeservicios cpagomiscuentas mpagomiscuentas ccajeros_propios_descuentos mcajeros_propios_descuentos ctarjeta_visa_descuentos mtarjeta_visa_descuentos ctarjeta_master_descuentos mtarjeta_master_descuentos ccomisiones_mantenimiento mcomisiones_mantenimiento ccomisiones_otras mcomisiones_otras cforex cforex_buy mforex_buy cforex_sell mforex_sell ctransferencias_recibidas mtransferencias_recibidas ctransferencias_emitidas mtransferencias_emitidas cextraccion_autoservicio mextraccion_autoservicio ccheques_depositados mcheques_depositados ccheques_emitidos mcheques_emitidos ccheques_depositados_rechazados mcheques_depositados_rechazados ccheques_emitidos_rechazados mcheques_emitidos_rechazados tcallcenter ccallcenter_transacciones thomebanking chomebanking_transacciones ccajas_transacciones ccajas_consultas ccajas_depositos ccajas_extracciones ccajas_otras catm_trx matm catm_trx_other matm_other ctrx_quarter tmobile_app cmobile_app_trx Master_delinquency Master_status Master_mfinanciacion_limite Master_Fvencimiento Master_Finiciomora Master_msaldototal Master_msaldopesos Master_msaldodolares Master_mconsumospesos Master_mconsumosdolares Master_mlimitecompra Master_madelantopesos Master_madelantodolares Master_fultimo_cierre Master_mpagado Master_mpagospesos Master_mpagosdolares Master_fechaalta Master_mconsumototal Master_cconsumos Master_cadelantosefectivo Master_mpagominimo Visa_delinquency Visa_status Visa_mfinanciacion_limite Visa_Fvencimiento Visa_Finiciomora Visa_msaldototal Visa_msaldopesos Visa_msaldodolares Visa_mconsumospesos Visa_mconsumosdolares Visa_mlimitecompra Visa_madelantopesos Visa_madelantodolares Visa_fultimo_cierre Visa_mpagado Visa_mpagospesos Visa_mpagosdolares Visa_fechaalta Visa_mconsumototal Visa_cconsumos Visa_cadelantosefectivo Visa_mpagominimo
feature_infos=[249221109:1589570953] [202103:202103] [0:1] [0:1] [0:3] [18:105] [1:375] [-447330.64000000001:453575.54999999999] [-1234660.28:3521556.4700000002] [-134235.23999999999:315325.28000000003] [-437925.21000000002:332150.96000000002] [-25467.619999999999:385835.95000000001] [3:17] [1:2] [1:3] [-55348.260000000002:1332505.5900000001] [-1393141.8799999999:18411051.879999999] [2:10] [-1705.48:29587013.489999998] [-987.90999999999997:3402314.9199999999] [-21577.52:91205225.879999995] [0:1] [-2483086.5699999998:186878872.97] [0:25] [0:192] [0:899355.13] [0:3] [0:314] [0:1683779.5800000001] [0:2] [0:175] [0:1449308.0600000001] [0:14] [0:23460000] [0:13] [0:21065457.359999999] [0:59] [0:86684700] [0:46040249.409999996] [0:16] [0:69494621.469999999] [0:42449190.880000003] [0:72] [0:291791955.75999999] [0:3] [0:6] [0:5] [0:4] [0:6] [0:242] [0:26649509.48] [0:349495.34999999998] [0:5] [0:310] [0:4979348.5] [0:46] [0:308314.92999999999] [0:24] [0:205207.23999999999] [0:60] [0:1431998.5700000001] [0:201] [0:57602066.170000002] [0:16] [0:19169.810000000001] [0:23] [0:51659.440000000002] [0:28] [0:104532.17999999999] [0:16] [-13130.790000000001:8252.5699999999997] [0:365] [-134235.23999999999:315325.28000000003] [0:10] [0:8] [0:71553] [0:10] [0:2641.9400000000001] [0:722] [0:441473030.06999999] [0:230] [0:136562112.53] [0:137] [0:2228700] [0:206] [0:10488731.970000001] [0:153] [0:37298813.520000003] [0:6] [0:2268589.9100000001] [0:33] [0:2442544.9300000002] [0:1] [0:110] [0:1] [0:4149] [0:1] [0:32] [0:48] [0:13] [0:88] [0:137] [0:2228700] [0:52] [0:1705122.8] [0:2148] [0:1] [0:1] [0:1] [0:9] [0:339068148.14999998] [-2914178:5115] [2:177] [-1198282.6799999999:3755397.6499999999] [-1198282.6799999999:3713936.6200000001] [-638498.51000000001:1365030.26] [-108002.98:1449308.0600000001] [0:14663.74] [1231.6500000000001:10358246.880000001] [0:57746.160000000003] [0:627.76999999999998] [1:3290] [0:1002999.25] [-3213964.1600000001:186758.01000000001] [0:11306.299999999999] [1:7602] [-108002.98:1449308.0600000001] [0:174] [0:19] [0:963502.19999999995] [0:1] [0:9] [0:339068148.14999998] [-2914178:4627] [3:178] [-682644.5:2777233.3900000001] [-654437.63:3257694.7599999998] [-830803.68000000005:1253257.23] [-1849979.55:1646727.79] [0:13324.540000000001] [1011.71:10358246.880000001] [0:188853] [0:700.15999999999997] [1:1771] [0:1073206.1100000001] [-2862599.6699999999:253505.79000000001] [0:8699.1200000000008] [1:12637] [-1849979.55:1646727.79] [0:141] [0:33] [0:1877058.0600000001]
tree_sizes=9858 13052 14115 14727 14473 15524 14990 15052 15778 15572 15367 15035 15475 16320 15299 16537 15409 14966 16718 15016 15648 15692 15946 15415 15563 14747 15150

Tree=0
num_leaves=92
num_cat=0
split_feature=105 22 2 105 18 136 8 11 50 10 8 136 70 28 92 70 28 8 111 8 125 30 0 22 10 28 70 50 136 129 22 11 22 9 111 133 22 79 71 25 16 79 81 70 133 54 18 30 53 9 111 28 20 10 8 99 125 111 125 66 85 125 28 136 95 8 148 79 72 81 115 136 11 25 79 122 118 5 132 82 22 123 111 16 7 0 5 0 0 0 105
split_gain=5555.82 2525.68 1355.76 526.107 268.891 263.017 349.934 192.493 161.889 113.383 112.313 111.974 97.8982 120.192 79.4363 69.6661 86.0075 64.0762 67.3952 62.0485 50.5613 41.2162 41.0691 38.851 36.0231 34.2682 32.1009 24.8332 23.5284 23.1405 17.717 17.2184 15.883 14.116 13.2442 12.7084 12.3949 6.66105 5.40422 4.69213 3.91205 6.79306 4.83829 3.70015 3.58771 5.52432 2.03295 2.18411 3.43827 1.83556 1.88676 1.49222 1.50564 2.16217 2.21734 1.1573 2.01209 1.1459 1.1278 1.08846 1.13586 0.717672 0.973978 2.03673 0.630745 0.547936 1.00274 0.447951 1.84438 0.34393 0.268724 0.253092 0.168979 0.39777 1.12728 0.0770504 0.0735892 0.0731208 0.0729681 0.0552441 0.0550445 0.0523918 0.0456207 5.68434e-14 2.84217e-14 1.42109e-14 1.42109e-14 3.55271e-15 3.55271e-15 3.55271e-15 3.55271e-15
threshold=21.500000000000004 -1513.3349999999998 1.0000000180025095e-35 46.500000000000007 3672.0600000000004 3262.2900000000004 17505.775000000005 97.995000000000019 15134.045000000002 -47.664999999999992 15696.840000000002 3262.2900000000004 1728.3450000000003 2755.9650000000006 1.0000000180025095e-35 1728.3450000000003 2755.9650000000006 10677.865000000002 -1048.9999999999998 13938.660000000002 4530.5000000000009 2.5000000000000004 731997469.00000012 15434.120000000001 -1482.8099999999997 1283.7500000000002 1728.3450000000003 1.0000000180025095e-35 3262.2900000000004 193.54500000000004 56823.775000000001 621.86500000000012 132714.73000000001 342.26500000000004 -1385.4999999999998 -1688.9999999999998 343.685 22112.220000000005 9.5000000000000018 3414.5000000000005 -55.089999999999996 4717.8050000000012 8914.8350000000009 1256.6050000000002 -835.49999999999989 69.980000000000018 6938.4550000000008 4.5000000000000009 1.0000000180025095e-35 1844.0600000000002 -1048.9999999999998 1.0000000180025095e-35 3.77 -1.0000000180025095e-35 5175.9000000000005 1.0000000180025095e-35 1906.5000000000002 -866.49999999999989 2517.5000000000005 1.0000000180025095e-35 53544.62000000001 2983.5000000000005 26820.060000000005 68106.860000000015 22.500000000000004 26865.990000000005 15138.985000000002 175654.16500000001 284.00000000000006 7038.0100000000011 106.95000000000002 9936.0550000000021 332.15000000000003 22074.135000000006 63974.540000000008 2769.5400000000004 45747.000000000007 53.500000000000007 139352.40000000002 6.5000000000000009 80980.130000000019 -25065.109999999997 -623.49999999999989 -478.54999999999995 957.0250000000002 1317321719.0000002 63.500000000000007 977048413.00000012 621297141.50000012 842090463.00000012 129.50000000000003
decision_type=2 2 2 2 2 10 2 2 2 2 2 10 2 2 2 2 2 2 8 2 8 2 2 2 2 2 2 2 10 8 2 2 2 2 10 10 2 2 2 2 2 2 2 2 10 2 2 2 2 2 8 2 2 2 2 2 8 8 8 8 2 8 2 10 2 2 10 2 2 2 10 10 2 2 2 10 8 2 10 2 2 10 10 2 2 2 2 2 2 2 2
left_child=1 2 -1 4 12 6 -4 9 10 -3 11 23 22 -14 24 27 -17 18 -11 -15 30 -16 -2 -5 36 32 33 28 -6 -28 34 -18 -12 -26 -9 -24 37 -13 40 -35 41 -27 -43 51 61 -46 47 48 -40 50 -42 52 53 -10 -55 67 -57 -30 80 60 65 62 -38 -64 -51 66 -48 70 -69 -70 72 -67 73 77 89 76 -74 85 -71 -56 87 -58 -66 -78 -80 -53 -73 -29 -63 -75 -88
right_child=3 7 5 8 15 -7 -8 20 43 17 25 14 13 19 21 16 31 -19 -20 -21 -22 -23 35 -25 26 38 29 58 57 -31 -32 -33 -34 39 -36 -37 44 -39 46 -41 49 42 -44 -45 45 -47 59 -49 -50 64 -52 55 -54 54 79 56 81 -59 -60 -61 -62 88 63 -65 82 71 -68 68 69 78 -72 86 75 74 -76 -77 83 -79 84 -81 -82 -83 -84 -85 -86 -87 90 -89 -90 -91 -92
leaf_value=0.054285709824747563 -3.8080958654399342 -4.0957492325711495 -1.432263486567904 -3.6547570810785763 -4.1015646896047464 -3.4169809107556226 -2.9048052736092718 -4.2978160235635325 -4.4763741091070539 -3.4301515486116396 -4.2241864671214868 -4.2783901052568947 -3.1132262091422831 -3.5598272307876626 -3.9024568229320535 -3.6790466533066812 -4.2209546884482601 -3.7268558243213987 -2.724585992769855 -4.2238524732307772 -3.7138867094623547 -4.4054564985129989 -4.4230788935851475 -4.1999490273551103 -4.297603867690639 -4.3315452238508465 -4.0141459303395131 -4.6158200736150468 -4.4279950458634847 -4.4009549096570018 -4.4546715051016585 -4.5460310853199974 -4.5406900916997621 -4.4256062327511767 -3.9714957344953206 -4.1092113610830703 -4.6158200736150468 -4.4916363414034501 -4.426059270093706 -4.5859063806884262 -4.5818904878422879 -4.6029930990685139 -4.4218789787745187 -4.5021196847253533 -4.3940514295078019 -4.5869692893548724 -4.6158200736150468 -4.6158200736150468 -4.5756010812454084 -4.5470735130051558 -4.4736402417909948 -4.6158200736150468 -4.6158200736150468 -4.5044567901760919 -4.6158200736150468 -4.51468343606461 -4.6158200736150468 -4.5250568532925906 -4.5350885770273299 -4.5316170490343408 -4.5382193509084203 -4.6158200736150468 -4.4952511880612835 -4.6158200736150468 -4.6158200736150468 -4.5836121990611067 -4.5436366653868907 -4.5229344724162317 -4.5803083843505608 -4.5971328730001888 -4.5800787138975441 -4.6158200736150468 -4.5989947604131132 -4.6158200736150468 -4.536820539718037 -4.5973762934441966 -4.6158200736150468 -4.5973206840578653 -4.6158200736150468 -4.5971140691278345 -4.5975047575821302 -4.5970566764650886 -4.59707597135941 -4.6158200736150468 -4.6158200736150468 -4.6158200736150468 -4.6158200736150468 -4.6158200736150468 -4.6158200736150468 -4.6158200736150468 -4.6158200736150468
leaf_weight=13.012450197711585 14.330584411509333 11.984477383084593 15.382731622084973 13.665453940629961 12.552863294258712 12.069137711077927 16.652514138258994 11.899822503328322 12.770539401099084 15.394801083020864 23.303819452412426 13.193807261995973 14.814325249753891 13.701733634807171 22.154960250481963 13.54451948776841 21.985648674890399 12.770546907559035 11.887743477709593 14.197553014382718 12.093321550637482 12.697980012744663 13.858937732875345 12.310996204614638 22.384727005846798 12.528674248605965 19.978160681203008 11.936099049635233 11.851448044180868 12.431926904246209 12.431926177814601 12.75844512041658 11.851446712389587 15.21338941529393 12.782637313939633 11.863543898798527 14.911053827963768 16.132479924708605 14.076617471873762 22.324254876002669 13.121243999339638 17.353902994655076 12.625419655814765 17.619957556016743 14.052431210875513 15.431066611781715 19.675818798132241 13.012403827160595 16.604118249379098 12.95193823520094 20.353046818636358 75.184121369384229 34.840832180343568 13.99196319747716 22.832173258066177 17.607864243909717 19.482325804419819 12.262619324028494 13.786376649513839 13.21799098048359 14.342669369652866 15.310133127495648 16.616212772205476 11.924005737528203 14.040335356257854 13.82265610154718 18.50276849232614 14.378949305973945 18.805101052857935 11.911912667565046 12.456111833453177 68.677919455803931 13.230083687230943 12.141685355454685 14.088709815405307 12.069125724956391 121.86430610250682 12.032845788635312 32.603569440543652 11.899819234386085 12.153778909705578 11.86353941913694 11.875632610172035 365.14546575956047 46.522971675731242 12.903564018197356 12.468204782344403 12.625417839735745 11.887725801207123 12.39564490970224 15.237573254853485
leaf_count=1076 1185 991 1272 1130 1038 998 1377 984 1056 1273 1927 1091 1225 1133 1832 1120 1818 1056 983 1174 1000 1050 1146 1018 1851 1036 1652 987 980 1028 1028 1055 980 1258 1057 981 1233 1334 1164 1846 1085 1435 1044 1457 1162 1276 1627 1076 1373 1071 1683 6217 2881 1157 1888 1456 1611 1014 1140 1093 1186 1266 1374 986 1161 1143 1530 1189 1555 985 1030 5679 1094 1004 1165 998 10077 995 2696 984 1005 981 982 30194 3847 1067 1031 1044 983 1025 1260
internal_value=-4.39047 -3.12585 -1.9423 -4.50043 -4.17618 -2.53137 -2.19772 -3.79354 -4.54458 -3.49507 -4.45918 -4.35354 -3.86008 -3.62565 -4.39812 -4.36932 -4.15484 -3.31534 -3.12272 -3.89774 -4.10917 -4.08571 -4.11008 -3.91314 -4.44721 -4.53994 -4.34098 -4.48814 -4.3487 -4.16252 -4.23797 -4.34033 -4.33089 -4.43751 -4.12882 -4.27832 -4.52297 -4.3957 -4.56192 -4.52094 -4.52279 -4.46919 -4.52672 -4.60318 -4.56024 -4.49502 -4.58238 -4.5394 -4.50699 -4.55428 -4.51607 -4.60508 -4.57885 -4.5579 -4.57927 -4.6081 -4.5749 -4.47735 -4.58937 -4.59305 -4.59804 -4.58746 -4.56971 -4.54562 -4.58718 -4.60382 -4.58084 -4.61017 -4.5979 -4.60771 -4.61247 -4.61178 -4.61308 -4.60619 -4.58701 -4.61495 -4.61538 -4.6136 -4.61337 -4.60941 -4.60976 -4.60872 -4.60723 -4.61582 -4.61582 -4.61582 -4.61582 -4.61582 -4.61582 -4.61582 -4.61582
internal_weight=0 158.362 57.1168 1821.13 218.224 44.1044 32.0352 101.245 1602.91 52.0376 652.265 282.621 82.7667 42.7136 256.644 135.457 48.2886 40.0531 27.2825 27.8993 49.2077 34.8529 40.0531 25.9765 221.791 369.644 92.3325 87.1686 36.6669 32.4101 37.1144 34.7441 35.1553 59.9224 24.6825 25.7225 129.459 29.3263 334.489 37.5376 114.85 42.508 29.9793 950.643 100.133 29.4835 219.639 43.6931 30.6807 72.3422 33.4743 933.023 96.3353 61.4945 48.724 836.688 48.9537 24.1141 50.5017 175.946 162.728 70.6491 43.4513 28.5402 38.8679 148.385 38.1786 787.734 124.223 109.844 663.512 110.206 651.056 138.747 38.626 512.309 500.24 100.121 91.0385 34.732 36.7153 31.3459 25.916 487.01 79.1265 88.0877 96.3837 24.5615 27.1979 24.5373 27.7058
internal_count=163685 13095 4723 150590 18045 3647 2649 8372 132545 4303 53936 23370 6844 3532 21222 11201 3993 3312 2256 2307 4069 2882 3312 2148 18340 30566 7635 7208 3032 2680 3069 2873 2907 4955 2041 2127 10705 2425 27659 3104 9497 3515 2479 78609 8280 2438 18162 3613 2537 5982 2768 77152 7966 5085 4029 69186 4048 1994 4176 14549 13456 5842 3593 2360 3214 12270 3157 65138 10272 9083 54866 9113 53836 11473 3194 42363 41365 8279 7528 2872 3036 2592 2143 40271 6543 7284 7970 2031 2249 2029 2291
is_linear=0
shrinkage=1


Tree=1
num_leaves=118
num_cat=0
split_feature=49 131 11 16 105 11 92 21 70 5 125 6 140 95 22 8 151 8 12 27 28 70 149 133 129 71 79 6 8 70 136 105 10 149 6 28 138 11 18 71 133 12 28 151 147 125 71 22 133 56 138 8 81 85 6 50 5 22 8 24 133 140 140 8 136 57 147 101 111 6 55 118 31 104 50 79 105 105 50 105 105 50 50 18 8 105 11 79 72 11 99 81 11 79 79 11 127 105 140 27 20 121 5 125 122 22 72 139 116 113 123 58 80 5 113 9 125
split_gain=443.108 175.425 113.149 204.29 70.5047 63.3585 59.2843 42.9426 41.6032 38.2059 46.9581 36.4237 34.5825 27.5805 29.3973 28.4173 44.5418 24.1286 22.64 22.6343 22.1748 21.9857 19.8216 14.9238 14.3257 15.7738 17.9421 11.6749 10.7613 9.31807 7.62968 7.33557 6.86987 7.46198 6.54487 6.05555 7.23357 5.96617 5.65487 4.81609 4.668 4.04233 3.94318 3.35902 3.26518 2.90485 2.86821 3.41038 2.23188 1.63217 1.32838 1.27337 1.24705 1.00256 0.90063 2.90295 0.945949 0.885662 3.14566 1.08876 0.818572 0.765669 0.742312 1.78412 0.671393 0.355563 0.287003 0.684983 0.250171 0.217149 0.211486 0.15812 0.243631 0.0870581 0.0747523 0.0556644 0.0482776 0.000436237 0.000131879 4.43201e-05 4.42294e-05 2.88641e-05 1.6119e-05 2.40957e-06 2.11243e-06 2.0189e-06 1.99317e-06 9.78583e-07 2.60884e-06 9.38873e-07 9.29969e-07 8.67592e-07 4.16719e-07 8.23923e-07 3.76954e-07 9.874e-08 8.89329e-08 5.46473e-08 5.43228e-08 5.259e-08 3.10309e-08 2.66266e-08 2.60668e-08 1.48593e-08 1.38653e-08 1.33984e-08 8.06588e-09 6.69439e-09 5.97359e-09 5.59326e-09 4.61007e-09 3.81723e-09 3.18991e-09 1.68984e-09 1.10102e-09 1.7684e-10 4.41105e-11
threshold=1.0000000180025095e-35 1.0000000180025095e-35 857.24500000000012 -1263.0699999999999 1.0000000180025095e-35 436.10500000000008 1.0000000180025095e-35 1.0000000180025095e-35 1728.3450000000003 34.500000000000007 597.50000000000011 30.500000000000004 309672.00000000006 7.5000000000000009 -1513.3349999999998 7828.005000000001 2035.1550000000002 17505.775000000005 7.5000000000000009 2.5000000000000004 2755.9650000000006 1728.3450000000003 53.500000000000007 -1354.4999999999998 1.0000000180025095e-35 2.5000000000000004 2347.5750000000003 103.50000000000001 15696.840000000002 1581.3850000000002 13361.725000000002 109.50000000000001 -1096.9949999999997 6.5000000000000009 67.500000000000014 1283.7500000000002 1.0000000180025095e-35 2332.6200000000003 2256.5600000000004 6.5000000000000009 -1140.4999999999998 7.5000000000000009 13916.580000000002 5647.9950000000008 2802.5000000000005 252.50000000000003 8.5000000000000018 21570.255000000001 -835.49999999999989 7706.0950000000003 98493.360000000001 38505.775000000009 31925.595000000005 25852.920000000002 67.500000000000014 201450.14500000005 67.500000000000014 15434.120000000001 5175.9000000000005 18.500000000000004 -1444.4999999999998 154836.00000000003 105570.00000000001 1.0000000180025095e-35 9936.0550000000021 2.5000000000000004 1520.5000000000002 1.0000000180025095e-35 -1597.4999999999998 60.500000000000007 7.5000000000000009 63342.000000000007 1.0000000180025095e-35 19985.700000000004 128652.16000000002 63974.540000000008 38.500000000000007 46.500000000000007 15134.045000000002 46.500000000000007 46.500000000000007 63242.485000000008 37774.370000000003 15335.440000000002 26865.990000000005 91.500000000000014 141.78500000000003 175654.16500000001 405.64000000000004 436.10500000000008 1.0000000180025095e-35 7038.0100000000011 332.15000000000003 63974.540000000008 155827.76500000004 332.15000000000003 1.5000000000000002 97.500000000000014 240699.60000000003 19.500000000000004 19.960000000000004 4.0000000000000009 45.500000000000007 2517.5000000000005 702.77500000000009 95540.330000000016 3301.7200000000007 1.7950000000000002 1.0000000180025095e-35 1.0000000180025095e-35 -25065.109999999997 1.0000000180025095e-35 3.5000000000000004 59.500000000000007 1.0000000180025095e-35 1705.0700000000002 4855.5000000000009
decision_type=2 10 2 2 2 2 2 2 2 2 10 2 10 2 2 2 8 2 2 2 2 2 8 8 10 2 2 2 2 2 8 2 2 10 2 2 8 2 2 2 10 2 2 10 8 8 2 2 8 2 10 2 2 2 2 2 2 2 2 2 10 10 10 2 10 2 10 2 10 2 2 8 2 2 2 2 2 2 2 2 2 2 2 2 2 2 2 2 2 2 2 2 2 2 2 2 10 2 10 2 2 10 2 10 8 2 2 10 10 10 10 2 2 2 8 2 10
left_child=1 2 3 4 -1 6 9 -6 35 10 -5 -9 13 14 -11 16 -15 21 40 29 -17 44 28 -23 25 -13 27 -27 31 34 -28 32 33 -4 -16 36 -2 -24 41 -19 -14 -26 -22 -33 -7 -38 47 -30 -32 51 53 -49 -45 64 55 62 66 61 -59 74 -41 76 63 -37 -48 83 67 -56 -65 73 71 72 -68 77 79 -62 -47 -64 -73 -60 -80 -78 -79 -66 -85 -70 -83 90 -89 -69 92 -90 93 102 95 -84 104 -86 -93 106 109 107 114 -100 108 -102 -99 112 113 -97 -105 -110 -98 115 -82 116 -94
right_child=8 -3 22 5 7 17 -8 11 -10 12 -12 24 18 15 19 20 -18 39 -20 -21 42 23 37 -25 38 26 30 -29 46 -31 48 43 -34 -35 -36 54 45 -39 -40 60 -42 -43 -44 52 -46 57 50 49 -50 -51 -52 -53 -54 -55 56 -57 -58 58 59 -61 75 -63 69 68 65 -67 70 89 85 -71 -72 78 -74 -75 -76 -77 81 82 80 -81 87 86 94 84 97 -87 -88 88 91 -91 -92 98 96 -95 -96 100 101 99 103 -101 105 -103 -104 110 -106 -107 -108 -109 111 -111 -112 -113 -114 -115 -116 -117 -118
leaf_value=-0.19313669076210657 -0.021329124826591304 0.62628058316693247 -0.16779029945356566 0.11749297885874985 0.22161797104448655 -0.11574548257355662 0.42110466732867008 -0.18851449071872772 0.058758887115117051 -0.10200184036071527 0.49177763789481044 -0.068470049749673856 0.26637028738771135 0.45509178640407139 0.15738900166276135 0.18737019558359927 0.027011656591601745 -0.045682545328377101 0.086153922148174106 -0.096158216590264217 -0.0019261856982047926 0.35827588813212463 0.12511282236355914 0.063263266649533217 -0.0076917601261476537 0.037125898067881663 0.053670291449919215 0.18404358404096818 -0.042304653724550674 0.24555017901607512 -0.1598149744158997 -0.0729821434173024 0.11692203186975085 0.043582787019322965 0.011668744231456959 -0.12429213425264637 -0.10880305334500283 -0.065342950426067442 -0.19544239379956774 -0.14178461519135335 0.413349274706035 -0.13807516610384094 -0.15166105558081228 -0.13893258420221088 0.0064756685003199187 -0.24104219537563845 -0.16946622224346852 -0.147142475938006 -0.047180491504411483 -0.10525836005496715 -0.12103823138017344 -0.22527841515261349 -0.22528053035717741 -0.14861767644357141 -0.16520165190510983 -0.10947443788350877 -0.16389792736618691 -0.073743078953818569 -0.2254255518509185 -0.1375070347847033 -0.22522476579534714 -0.16975680087084882 -0.22639610508243879 -0.18532978496128119 -0.22495876019988595 -0.17983766556743094 -0.22493312266898113 -0.22491522356162644 -0.2249609410043408 -0.19385280236386984 -0.19855228776348563 -0.2254568168747183 -0.17916180529596731 -0.20373017909523369 -0.20275168764271692 -0.20363124750243325 -0.22541406541966988 -0.22511232853217453 -0.22529167087903681 -0.22484805267069921 -0.2247982245789476 -0.2250330219132394 -0.22483043681013892 -0.22492242250985198 -0.22483522038596748 -0.22483800279383243 -0.22489488427124923 -0.22493692355435557 -0.22487682952992505 -0.22483017503923605 -0.22485786211978981 -0.22482062136291128 -0.22479822457894766 -0.22486622895190747 -0.22485851978874119 -0.22480373486807578 -0.22480227150804324 -0.22481447572486696 -0.22481093359474333 -0.22482744471715885 -0.22482337387861842 -0.22481728334257681 -0.22481278553883435 -0.22479869978989692 -0.22480620468011611 -0.22481202058221728 -0.22480633824203924 -0.22481085485700417 -0.22480465480769241 -0.2248104096447944 -0.22480414842291527 -0.22479904696286854 -0.22480748008271353 -0.22480090527194338 -0.22480139935831697 -0.22479899388992974 -0.22479864527397878
leaf_weight=170.79895512852818 15.28398375492543 21.7131517380476 18.633732325397432 38.237690797075629 32.666824350133538 22.258971367962658 36.503641966730356 70.751399869099259 30.314097814261913 70.021936728619039 29.362918910570443 78.442085362039506 21.363277118653059 29.060604115948081 32.064149706624448 33.396223379299045 20.566965626552701 16.036005630157888 29.319682158529758 27.306891879998147 20.733414986170828 14.051642853766678 17.762300901114941 21.490910944528878 30.217430268414319 56.663601223379374 22.852159552276134 50.851543515920639 14.218494953587649 26.70893722679466 20.196109041571617 21.892623496241868 12.960030267015098 14.886722999624906 29.161353649571538 15.408249683678148 22.309551046229899 15.059104429557918 21.408319173380733 10.65648149512708 21.463625239208341 19.312013814225793 15.032611995935438 15.460165956057606 21.094306765124202 13.484161572530864 15.962029560469089 19.938642608933151 15.336238793097435 16.73259861767292 10.718329631723462 21.454685886390507 17.862295174971223 14.575746561400591 14.779338203370569 15.433986672200261 14.573435598984359 11.694135584868489 10.232474157586696 10.192251631990073 13.662031086161734 13.686037561856208 10.187622189521788 11.037684923969204 10.165278185158966 9.8936670916154963 14.100521560758354 10.662557702511551 10.688152363523846 14.345767162740229 16.948967528529465 16.99989914521575 9.7438470283523184 10.530665810219942 10.055442425422369 10.43165294639766 10.684205197729172 10.875559147447346 9.7943416908383352 18.470422232523561 12.11673460993916 10.294660355895759 17.92241065390408 12.747191973961888 10.081454738974569 17.383853936567903 10.408052636310456 10.847514040768145 10.630790228955446 16.207357986830175 17.402430302463472 11.568365294486282 127.61860992293805 15.531152748502789 12.502515076659618 17.462414700537924 14.858738286420705 12.231970110908152 9.7999637806788069 14.433085564523934 10.075494944117965 16.120193624868989 11.354157836176453 18.154276775196191 14.241588366217909 10.536441683769224 11.913798023946581 11.353664905764161 14.095803278498353 9.6625192631036025 13.354016029275959 10.490369375795124 9.5838692346587759 13.945702903904019 9.7823035633191449 18.690125103108585 13.67120354156941
leaf_count=905 1432 369 1440 1318 353 1739 1836 1374 1925 1030 1452 1022 910 1464 1140 1316 1241 1175 1791 1869 1472 967 1063 1561 1329 1355 984 1474 1180 1123 1558 1842 935 1236 971 1525 1722 1080 1774 953 1059 1296 1206 1359 1689 599 1465 1781 826 1603 1069 1937 1601 1397 1462 1555 1425 993 907 1026 1248 912 864 1082 988 1004 1412 1064 1058 1441 1733 1473 986 1062 1007 1017 948 1025 895 1870 1249 982 1823 1247 1024 1765 1033 1055 1059 1650 1750 1181 13155 1556 1257 1796 1529 1253 1005 1470 1028 1648 1163 1871 1463 1080 1224 1164 1449 991 1373 1081 984 1436 1007 1926 1409
internal_value=0 -0.00197998 -0.0109014 0.0208392 -0.0726073 0.111147 0.148424 -0.0234399 -0.197632 0.125995 0.280067 -0.0441772 0.0983096 0.0654343 0.0117512 0.149158 0.277684 -0.0269163 0.236858 0.0808688 0.0569336 0.0501189 -0.126418 0.179896 -0.0117867 0.0137796 0.0526695 0.106614 -0.144572 0.135842 -0.0466687 -0.0858657 -0.0207064 -0.0739177 0.0879833 -0.206465 -0.166809 0.037728 -0.0998485 -0.14659 0.340032 -0.0585295 -0.0648604 -0.140717 -0.0562766 -0.182522 -0.175178 -0.140023 -0.1112 -0.163926 -0.195902 -0.187641 -0.185219 -0.203066 -0.215065 -0.202094 -0.219823 -0.196319 -0.177465 -0.202244 -0.193155 -0.215845 -0.210097 -0.188446 -0.211212 -0.219391 -0.221407 -0.203693 -0.213721 -0.219608 -0.222967 -0.223875 -0.206229 -0.222974 -0.219268 -0.215876 -0.229903 -0.225016 -0.224849 -0.225054 -0.224824 -0.225117 -0.224858 -0.224858 -0.224842 -0.224885 -0.224964 -0.224813 -0.224836 -0.224864 -0.224808 -0.224819 -0.224805 -0.224824 -0.224823 -0.224816 -0.224802 -0.224821 -0.224807 -0.224817 -0.224811 -0.22481 -0.224804 -0.224803 -0.224799 -0.224818 -0.22481 -0.224806 -0.224799 -0.224806 -0.224801 -0.224802 -0.224804 -0.224799 -0.2248 -0.224798 -0.224798
internal_weight=0 1550.78 1529.07 1199.48 589.497 609.986 480.304 418.698 910.185 443.8 67.6006 386.031 376.2 304.053 185.263 118.79 49.6276 129.682 72.1466 115.241 69.1623 78.8958 329.584 35.5426 315.28 244.342 165.9 107.515 296.763 87.9344 58.3845 101.696 46.4805 33.5205 61.2255 879.871 156.795 32.8214 70.9378 50.7862 42.8269 49.5294 35.766 55.2151 43.3533 141.511 195.067 72.3444 35.5323 58.1259 122.723 41.3933 33.3225 112.004 723.075 194.053 529.022 119.202 60.6447 48.9506 34.7502 58.5571 178.619 54.5179 97.4285 81.4664 514.448 41.6493 39.1097 124.101 472.799 455.85 23.8444 109.756 38.7583 24.0937 44.8711 99.225 432.006 28.7029 415.006 31.3869 89.0374 71.5728 61.4075 28.072 20.7027 405.212 74.3549 26.8699 330.857 63.5074 313.454 48.7843 78.1618 65.6593 264.67 48.6603 52.8766 38.5789 47.7369 51.9165 33.2532 41.3083 212.753 20.6119 24.1458 35.7963 198.512 27.1249 31.5083 24.5862 24.4426 173.926 21.899 159.98 141.29
internal_count=163685 75364 74995 45797 14250 31547 21198 13345 88321 19362 2770 12992 16592 12832 6133 6699 2705 10349 3760 5103 3994 5956 29198 2528 11618 7219 6197 2829 27055 3234 3368 8413 3611 2676 2111 86396 13431 2143 4399 4393 1969 2625 2678 4802 3428 11999 18642 6501 2384 5321 12141 3718 2960 11072 72965 19352 53613 10277 5803 4810 3218 4474 17797 5430 9675 8210 52188 4176 3905 12367 48012 46279 2398 10926 3784 2265 3562 9864 43881 2777 42408 2963 9000 7206 6218 2823 2015 41513 7544 2714 33969 6489 32219 4975 7975 6718 27244 4971 5430 3947 4895 5325 3419 4249 21919 2108 2477 3677 20456 2787 3244 2530 2513 17926 2256 16490 14564
is_linear=0
shrinkage=0.222596


Tree=2
num_leaves=128
num_cat=0
split_feature=50 2 105 93 97 10 7 70 8 8 151 16 16 12 54 7 25 7 5 12 123 140 70 8 7 138 18 20 28 20 28 71 8 18 138 79 114 16 28 6 20 28 145 25 79 111 18 8 149 111 96 20 31 95 0 18 80 132 99 125 138 145 6 50 11 56 25 20 6 5 79 127 118 127 79 7 63 25 71 105 105 11 11 11 105 8 71 71 105 18 18 28 132 132 8 79 72 81 79 11 79 55 115 6 125 101 104 55 101 132 125 114 121 30 5 102 101 110 0 145 16 113 138 7 31 9 125
split_gain=364.197 158.633 180.468 59.9905 49.6121 34.7645 44.3636 36.5385 42.9452 30.5543 29.7141 25.8871 22.2253 21.5857 17.7543 17.7108 21.6561 17.1303 15.6945 14.2109 13.3931 13.1605 12.3513 12.326 26.7353 14.038 12.8536 11.9498 11.3794 9.32018 9.04456 8.94147 7.57584 6.15018 8.19371 6.06661 5.96715 7.16057 4.90332 4.73334 4.29638 4.17375 4.35398 6.0806 4.06563 4.06372 4.00295 2.91717 3.85038 2.06313 1.72992 4.16511 1.63408 1.68953 1.65396 1.95988 1.25902 1.84603 1.22888 1.8288 1.20481 3.2054 0.66361 1.43982 0.795612 1.5292 0.658863 0.590659 0.50514 0.408108 0.639546 0.24744 0.203172 0.292514 0.148509 0.226898 0.109945 0.0798516 0.0681632 0.0276462 0.000458953 5.439e-05 5.03875e-05 2.14975e-05 1.66157e-05 8.26669e-06 5.42003e-06 3.56331e-06 1.91298e-06 1.05956e-06 8.5753e-07 7.78141e-07 5.68037e-07 5.54499e-07 7.44499e-07 4.81614e-07 1.14327e-06 3.79536e-07 2.76462e-07 2.26014e-07 4.37986e-07 1.6577e-07 1.30636e-07 8.65834e-08 7.21011e-08 1.59119e-07 4.47743e-08 2.0873e-08 1.99151e-08 1.88627e-08 9.90686e-09 7.45877e-09 1.56313e-08 3.95084e-09 3.8972e-09 8.23178e-10 5.08784e-10 1.70477e-10 8.24087e-11 3.33102e-11 3.13989e-11 1.12976e-11 7.92966e-12 1.13971e-11 9.9476e-13 1.42109e-14 2.13163e-14
threshold=15134.045000000002 1.0000000180025095e-35 73.500000000000014 2.5000000000000004 1.0000000180025095e-35 -643.95499999999993 4234.5250000000005 1728.3450000000003 9203.9300000000021 15696.840000000002 6480.8250000000007 -619.6149999999999 -796.71999999999991 5.5000000000000009 306.38000000000005 598.61500000000012 9020.7000000000025 1785.2100000000003 34.500000000000007 6.5000000000000009 -1.0000000180025095e-35 211140.00000000003 1256.6050000000002 9203.9300000000021 957.0250000000002 882.97500000000014 3672.0600000000004 3.77 4236.3750000000009 37.210000000000008 1283.7500000000002 4.5000000000000009 6504.505000000001 10846.650000000001 19423.245000000006 63974.540000000008 395.63500000000005 -1.0000000180025095e-35 1.0000000180025095e-35 134.50000000000003 19.960000000000004 1283.7500000000002 -1.0000000180025095e-35 11730.005000000003 10558.310000000003 -774.49999999999989 1117.1050000000002 38505.775000000009 5.5000000000000009 -2053.9999999999995 1.0000000180025095e-35 7443.9050000000007 6218.7350000000015 3.5000000000000004 324460689.50000006 58109.975000000013 2.5000000000000004 1367592.7000000002 1.0000000180025095e-35 1906.5000000000002 22074.325000000004 -44052.884999999987 84.500000000000014 201450.14500000005 383.42500000000007 1127.5800000000002 22074.135000000006 58.800000000000004 162.50000000000003 63.500000000000007 94351.395000000004 7.5000000000000009 63342.000000000007 6.5000000000000009 44111.125000000007 598.61500000000012 1.0000000180025095e-35 31992.820000000003 11.500000000000002 30.500000000000004 60.500000000000007 1059.4800000000002 436.10500000000008 621.86500000000012 53.500000000000007 5175.9000000000005 9.5000000000000018 10.500000000000002 53.500000000000007 23310.970000000005 58109.975000000013 68453.040000000023 93605.400000000009 93605.400000000009 3901.8700000000003 175654.16500000001 473.41000000000003 8914.8350000000009 175654.16500000001 332.15000000000003 63974.540000000008 6.5000000000000009 106.95000000000002 60.500000000000007 1565.5000000000002 1.0000000180025095e-35 11084.850000000002 4.5000000000000009 1.0000000180025095e-35 267444.00000000006 1735.5000000000002 2976.8750000000005 4.0000000000000009 1.5000000000000002 42.500000000000007 2404.6500000000005 1.0000000180025095e-35 164689.20000000004 940405075.00000012 -6171.1849999999995 -95.164999999999978 10524.410000000002 3400.6400000000008 957.0250000000002 510.14000000000004 1592.2150000000004 4855.5000000000009
decision_type=2 2 2 2 2 2 2 2 2 2 10 2 2 2 2 2 2 2 2 2 8 8 2 2 2 10 2 2 2 2 2 2 2 2 8 2 10 2 2 2 2 2 8 2 2 8 2 2 8 8 2 2 2 2 2 2 2 8 2 8 10 8 2 2 2 2 2 2 2 2 2 8 8 8 2 2 2 2 2 2 2 2 2 2 2 2 2 2 2 2 2 2 10 10 2 2 2 2 2 2 2 2 8 2 10 2 2 2 2 10 8 10 10 2 2 2 2 10 2 8 2 10 10 2 2 2 8
left_child=1 17 3 4 5 23 7 11 12 10 14 45 -9 -10 15 29 -17 -1 -13 -8 -15 39 41 24 25 -3 -27 32 35 -4 -29 -23 -20 34 -12 -11 37 -16 -34 -22 44 42 43 -2 -25 -7 -30 -21 -49 -44 52 71 53 -48 55 -55 74 -58 62 -60 82 78 63 64 65 66 80 81 -69 72 -71 -52 73 -64 79 -76 88 -61 -62 -51 -43 -35 -56 -54 -74 -81 -84 -85 -66 -87 -88 -89 -82 94 -90 99 -97 -98 103 100 108 102 104 106 105 -101 113 109 -86 -99 -105 118 116 117 -110 -111 -113 -95 119 122 -107 -118 123 -106 125 126 -124
right_child=22 2 9 -5 -6 6 19 8 13 28 33 18 -14 20 36 16 -18 -19 27 47 21 31 -24 40 -26 26 -28 30 46 -31 -32 -33 38 67 -36 -37 -38 -39 -40 -41 -42 58 49 -45 -46 -47 50 48 -50 56 51 -53 83 54 60 -57 57 -59 59 77 61 -63 69 -65 76 -67 -68 68 -70 70 -72 -73 84 -75 75 -77 -78 -79 -80 85 92 -83 86 87 95 89 90 91 93 -91 -92 -93 -94 98 -96 96 97 107 -100 101 -102 -103 -104 110 111 120 -108 -109 114 115 -112 112 -114 -115 -116 -117 121 -119 -120 -121 -122 -123 124 -125 -126 -127 -128
leaf_value=-0.093470145124365828 0.040550876450171879 -0.14287552971378553 0.079911275187469974 0.3550333637638175 0.35730807348418608 -0.11435261303320197 0.053705717658244917 0.17081578608823927 0.26309527724418419 0.060056370906799363 -0.19222838954326149 0.26078028003775028 0.3732890487572304 -0.07005975059486054 0.10254176882095312 0.35473200997152676 0.036005901494173174 -0.19822364806841572 0.076957866031933414 -0.050740360930487401 0.080336013415919227 0.092325353028330601 -0.039987851342645223 0.0042337470472961413 0.25979568955419485 0.14030630170082539 -0.08082829909363401 0.26835492205668854 -0.071381387418462547 -0.12849072280894663 0.053005603488630412 0.26132768517465155 0.023897643007336527 -0.22561888162146473 0.04941596260334033 -0.12837139854569338 -0.15677947712034107 -0.10020073929942415 -0.13520067610434591 -0.02653009986604539 -0.19538827883760432 -0.22629203790303581 -0.1140139221673169 -0.18817437529833611 -0.15335259309339572 -0.012018089881594701 -0.084325382558979853 -0.21659769055086509 -0.079727290548774643 -0.23828586851933908 -0.17283183079262565 -0.035381509997398919 -0.22491208835676824 -0.19836993046940785 -0.22513780678283288 -0.048547085308611938 -0.20930331584186135 -0.081440906839848629 -0.10704257228571006 -0.22438966756217937 -0.22469877038055588 -0.056354154696158391 -0.16778235910277184 -0.14049095419458563 -0.22449595672375741 -0.12308092476941193 -0.16100268674015261 -0.20563474763509521 -0.13734177073833606 -0.22448371814231366 -0.14215509776357094 -0.2246610232700241 -0.22465854085722212 -0.22439826363887114 -0.17972188364807071 -0.22517453264083145 -0.19779697757211601 -0.19567047154231754 -0.19881210454867335 -0.22476625886281962 -0.22443641115192434 -0.22492067743452493 -0.22467249459818442 -0.22461869634749151 -0.22437232253703149 -0.22455515403820209 -0.22452621039830742 -0.22444463004797438 -0.22446587675991753 -0.22444462077641072 -0.22442899811318565 -0.22452982012198933 -0.22436870460248443 -0.22435635431692466 -0.22438306551093001 -0.22445959101128299 -0.22441646497298459 -0.22436848239711993 -0.22440925986883511 -0.22438672651670266 -0.22441519118628125 -0.22438830156229525 -0.22438105118670526 -0.22438549404637562 -0.22435521436969835 -0.22435561588246147 -0.22437600521842768 -0.22437283870261421 -0.22435655489954281 -0.22435781040983296 -0.22437509378008524 -0.22435677875054477 -0.22436447515219354 -0.22436125900898815 -0.22436320944680688 -0.22435482368743451 -0.2243548859177239 -0.22435504532558828 -0.22435559823094567 -0.22435533252822473 -0.22435505761770927 -0.22435522037262251 -0.22435483814608037 -0.22435483520760915 -0.2243549150005657 -0.22435482814928587 -0.22435482676556201
leaf_weight=142.41893245652318 10.901097824331375 36.74558041524142 25.432586713694036 38.707352290395647 29.090117258019745 38.518774601630867 43.505958084948361 53.115221935324371 34.038434379268438 17.921278898604214 13.296123600564895 23.956240135245025 54.348860211670399 28.55047482252121 15.55047103948891 21.06257494026795 21.189005549997091 169.30138610024005 48.103028739802539 25.272213769610971 55.844341713935137 31.794609921053052 23.323098252527416 17.928497522138059 18.03089065104723 27.784356901422143 24.516116419807076 20.493774101138115 18.848485118709505 18.272352914325893 18.28593350155279 30.288449837360531 19.200679910369217 10.937523162923755 14.573738622944804 16.047077883500606 22.593674885109067 19.399974610190839 19.192386738024652 32.480779806617647 21.363465822767466 8.5295978337526304 15.737080049235374 12.20921015460044 14.815260525792835 38.389786883257329 9.506110792513935 20.028978515416384 20.718742940109223 10.196501683443783 8.6019180617295259 12.941700018942354 8.9076931830495578 8.4583386541344243 9.5890678395517153 8.8556525069288892 14.059771234635265 9.2927289698272926 13.203924756497143 12.577021630015226 12.069616863038393 9.2591567812487501 7.8564135544002083 15.888320841826497 8.2386202840134484 13.177883548196403 10.526169748045502 11.396854660008104 10.14235513564199 11.028176305349918 8.1158419121056777 9.7230971227399987 10.104008568450807 10.653053420595823 9.6749488087371009 12.43765383819118 8.3721733470447344 7.7548376182094207 8.6535578621551377 8.4635236859321612 11.168230960611256 11.178117788396774 11.010691207367929 13.273826990742235 9.2493239697068947 8.2504126224666852 8.4299246189184505 15.24679083004594 8.4716482330113667 8.9677509805187565 9.6350864656269533 8.1538732717744988 13.636281734798102 7.8787140808999601 14.736293061170725 9.049518352840094 8.0294361310079676 8.894674004986884 9.0520215416327101 13.062190800905226 11.94735783478245 10.624130356125532 13.301983344368635 8.3835829412564653 7.7491750116460008 8.5991852013394219 7.9327976242639116 8.1540441019460541 9.6390657038427907 7.7598043284378972 9.8939126804470998 15.051864187233148 14.529468613211064 8.3439565873704833 7.9630421036854377 11.131318261381237 9.1324923951178807 13.171001465059815 10.038614563643931 8.9634531904011947 11.902905835770072 11.071494503412394 38.15472552459687 7.9654265167191625 8.922606392297892 9.7389771598391217 7.9187546055763951
leaf_count=1426 1163 1631 1828 1542 1194 1111 1263 754 687 1481 1116 1016 1232 1411 1051 1420 1441 754 1876 1175 1609 843 1756 1084 882 1467 1938 870 1921 1451 1260 1176 820 932 1259 1386 1891 1386 1194 1332 1813 925 1438 1372 1166 897 1014 1350 1020 585 995 1497 927 945 907 1060 1605 1077 1489 1591 1330 1053 962 1847 1004 1639 1292 1110 998 1348 998 1093 1187 1343 997 1448 1060 986 1024 910 1376 1161 1218 1509 1178 987 1002 1873 1028 1101 1193 962 1740 1012 1866 1101 998 1135 1131 1651 1488 1341 1686 1060 996 1105 1008 1038 1238 996 1258 1933 1858 1069 1019 1431 1174 1693 1290 1152 1530 1423 4905 1024 1147 1252 1018
internal_value=0 -0.00748752 0.0261189 0.0840445 0.0716518 0.0614846 0.0842386 0.110148 0.158494 -0.0903632 -0.0303532 0.0416379 0.273215 0.100613 0.0280659 0.0921282 0.194892 -0.150364 0.095704 -0.0450659 0.0697089 0.0962398 -0.199256 -0.0311395 0.0126174 -0.0374337 0.0366483 0.0641369 -0.147679 -0.00721835 0.16681 0.174776 0.0181041 -0.14756 -0.0658675 -0.0289593 -0.0676271 -0.00999469 -0.0556343 0.0410369 -0.117733 -0.20474 -0.167119 -0.080285 -0.0670679 -0.0632712 -0.168774 -0.110155 -0.147004 -0.18779 -0.179428 -0.132057 -0.189928 -0.173373 -0.183221 -0.121739 -0.202063 -0.158423 -0.212854 -0.171546 -0.198727 -0.165239 -0.2155 -0.204429 -0.210718 -0.189574 -0.209553 -0.199713 -0.173477 -0.221171 -0.189582 -0.200332 -0.223019 -0.200367 -0.219636 -0.205288 -0.222262 -0.213436 -0.213889 -0.22848 -0.224884 -0.225266 -0.224695 -0.224602 -0.224378 -0.224586 -0.224549 -0.224527 -0.224393 -0.224498 -0.224474 -0.224474 -0.224399 -0.224384 -0.224413 -0.224368 -0.224388 -0.224373 -0.224373 -0.224364 -0.22438 -0.224361 -0.22436 -0.224367 -0.224358 -0.224368 -0.224361 -0.224363 -0.224364 -0.22436 -0.22438 -0.224356 -0.224358 -0.224357 -0.22436 -0.224356 -0.224356 -0.224356 -0.224355 -0.224355 -0.224355 -0.224355 -0.224355 -0.224355 -0.224355 -0.224355 -0.224355
internal_weight=0 1636.99 1325.27 885.109 846.402 817.312 656.128 546.602 320.461 440.158 215.025 226.141 107.464 212.997 143.501 85.9565 42.2516 311.72 149.232 109.526 178.959 150.408 700.753 161.184 107.077 89.0461 52.3005 125.276 225.133 43.7049 38.7797 62.0831 86.4961 71.5247 27.8699 33.9684 57.5441 34.9504 38.3931 88.3251 54.1072 677.43 120.191 23.1103 32.7438 76.9086 191.165 66.0199 40.7477 97.0804 172.316 31.2667 141.049 95.4672 85.9611 17.314 81.3433 23.3525 557.24 33.5358 68.6471 29.9823 523.704 177.401 161.513 57.0382 43.8603 43.6549 21.5392 346.303 19.144 18.325 327.159 18.5095 57.9908 22.1126 104.475 20.3319 20.7232 35.8782 33.3341 22.1156 38.6648 45.5822 308.649 25.6817 29.0757 36.6745 96.1025 17.2182 18.065 23.4007 24.8045 87.8639 23.2079 298.545 53.0188 43.9693 64.656 245.526 38.7988 206.727 196.103 55.604 182.801 33.5643 37.3265 35.9398 26.8514 27.7858 18.2775 149.237 49.7853 29.3937 17.6021 18.8911 35.2559 21.0497 99.4517 89.4131 20.5021 20.204 80.4497 15.7146 64.7351 55.8125 46.0735
internal_count=163685 79227 77047 35613 34071 32877 22896 18088 9044 41434 17044 9044 1986 7058 10468 6140 2861 2180 7036 4808 6371 4960 84458 9981 5918 5036 3405 6020 24390 3279 2130 2019 3890 6576 2375 2867 4328 2437 2014 2941 4063 82702 12683 2535 2250 2008 21523 3545 2370 10148 19602 3585 16017 10746 9732 2005 8710 2682 70019 4066 7727 3407 65953 22008 20161 6972 5333 4201 2108 43945 2346 2088 41599 2305 6028 2445 13189 2577 2354 3583 4041 2093 4320 5271 39294 2998 3413 4344 12129 2088 2195 2835 3116 11125 2894 38107 6699 5598 8231 31408 4923 26485 25144 7100 23458 4286 4782 4600 3435 3562 2318 19172 6388 3774 2257 2427 4530 2705 12784 11494 2635 2597 10342 2020 8322 7175 5923
is_linear=0
shrinkage=0.222596


Tree=3
num_leaves=133
num_cat=0
split_feature=50 109 2 105 22 96 16 135 8 10 8 105 151 136 22 69 111 11 22 149 136 18 70 9 7 118 135 125 143 7 18 54 95 136 11 110 70 95 111 54 151 28 28 28 151 145 129 16 78 133 132 7 22 81 99 125 95 28 129 123 105 24 24 111 37 24 81 50 125 72 62 105 66 149 133 7 105 116 129 11 54 105 105 11 105 11 11 125 111 31 5 80 136 11 11 61 118 125 18 125 56 56 24 110 5 11 24 115 72 78 125 132 55 125 125 132 101 125 5 81 102 78 133 133 114 81 78 132 82 111 114 125
split_gain=295.709 114.872 94.5925 102.41 28.228 30.3769 37.5623 21.484 21.1193 17.9187 23.633 26.864 15.4756 14.2349 13.0324 12.4522 12.1508 11.5785 11.285 12.2037 13.7404 11.2673 12.043 10.0254 8.26063 9.61675 8.16902 7.47617 6.8569 6.84694 6.38094 6.86622 6.13473 5.98776 5.59448 5.55283 5.31357 5.17918 4.68225 5.24387 4.57892 4.40002 4.39272 3.92682 3.86351 3.83173 3.37817 2.63336 2.61569 3.03685 2.43004 2.26383 2.86419 2.3228 1.50205 1.92272 1.37963 1.20684 1.07944 1.5044 1.51794 0.970783 0.905134 0.886065 0.770029 0.416361 1.31335 0.331376 1.40315 0.534339 0.211429 0.68993 0.1979 0.795008 0.188534 0.377796 0.813376 0.491997 0.13773 0.117127 0.0979726 0.000977357 0.000280648 3.7636e-05 2.5961e-05 1.4804e-05 1.30388e-05 2.40567e-06 1.89443e-06 1.67573e-06 1.48266e-06 1.20093e-06 9.29835e-07 8.70134e-07 8.62171e-07 6.46693e-07 5.45288e-07 3.59275e-07 2.83346e-07 2.75634e-07 3.20617e-07 2.67645e-07 2.38152e-07 1.41914e-07 1.28312e-07 1.19092e-07 1.06546e-07 5.82575e-08 5.15222e-08 4.61426e-08 3.48633e-08 3.76344e-08 3.23184e-08 3.50454e-08 2.67144e-08 1.83607e-08 1.6834e-08 1.35524e-08 1.06467e-08 7.58081e-09 7.00706e-09 6.21201e-09 2.78591e-09 3.2432e-09 2.62622e-09 2.52439e-09 3.69259e-09 1.79515e-09 1.06971e-09 8.53094e-10 5.39536e-10 1.0111e-11
threshold=15134.045000000002 1.0000000180025095e-35 1.0000000180025095e-35 85.500000000000014 3714.3050000000007 1.0000000180025095e-35 -1263.0699999999999 8522.2450000000008 19521.305000000004 -1276.2449999999997 7828.005000000001 21.500000000000004 6480.8250000000007 8310.4050000000007 237533.29500000001 1.0000000180025095e-35 -774.49999999999989 436.10500000000008 15434.120000000001 14.500000000000002 23249.985000000004 3672.0600000000004 1774.0500000000002 342.26500000000004 4234.5250000000005 572714.33500000008 1250.9100000000001 1565.5000000000002 4.0000000000000009 773.80000000000007 10846.650000000001 70.440000000000012 15.500000000000002 1444.1400000000001 1181.5200000000002 139352.40000000002 1930.9900000000002 15.500000000000002 -501.49999999999994 1223.0550000000001 2539.5450000000005 1283.7500000000002 20544.970000000005 1283.7500000000002 2035.1550000000002 -1226.0999999999997 193.54500000000004 -5390.369999999999 5.5000000000000009 -1354.4999999999998 66861.000000000015 598.61500000000012 10551.065000000002 5747.7800000000007 1.0000000180025095e-35 1906.5000000000002 49.500000000000007 24531.175000000003 1624.6050000000002 -16463.904999999995 103.50000000000001 1.5000000000000002 1.5000000000000002 -592.99999999999989 410554.73500000004 35.500000000000007 12741.830000000002 201450.14500000005 995.50000000000011 405.64000000000004 16993.070000000003 160.50000000000003 160.20500000000001 5.5000000000000009 -1627.9999999999998 -1651.8049999999998 103.50000000000001 8110.2800000000007 1859.2050000000002 2332.6200000000003 2625.7250000000008 46.500000000000007 46.500000000000007 857.24500000000012 46.500000000000007 693.79500000000007 771.97000000000014 2095.5000000000005 -1535.9999999999998 5513.7900000000009 65.500000000000014 2.5000000000000004 119829.75500000002 383.42500000000007 383.42500000000007 1.0000000180025095e-35 63342.000000000007 2095.5000000000005 92202.165000000023 2517.5000000000005 1127.5800000000002 1127.5800000000002 9.5000000000000018 57007.80000000001 55.500000000000007 436.10500000000008 9.5000000000000018 1.0000000180025095e-35 284.00000000000006 2.5000000000000004 1565.5000000000002 106977.60000000002 5.5000000000000009 2095.5000000000005 3210.5000000000005 93605.400000000009 1.0000000180025095e-35 2095.5000000000005 57.500000000000007 22580.540000000005 2404.6500000000005 2.5000000000000004 -1293.4999999999998 -1505.4999999999998 1230.9500000000003 7038.0100000000011 1.5000000000000002 139352.40000000002 4.5000000000000009 -1048.9999999999998 2976.8750000000005 3210.5000000000005
decision_type=2 10 2 2 2 2 2 10 2 2 2 2 10 8 2 2 8 2 2 8 10 2 2 2 2 8 10 10 8 2 2 2 2 10 2 10 2 2 8 2 10 2 2 2 10 8 10 2 2 8 10 2 2 2 2 8 2 2 8 8 2 2 2 10 2 2 2 2 8 2 2 2 8 10 10 2 2 10 10 2 2 2 2 2 2 2 2 10 8 2 2 2 10 2 2 2 8 10 2 10 2 2 2 10 2 2 2 8 2 2 10 10 2 10 10 10 2 10 2 2 2 2 10 10 10 2 2 10 2 10 10 10
left_child=1 2 16 4 5 6 23 14 12 35 11 -11 18 27 21 41 -1 -17 19 20 -5 -6 26 -4 25 43 28 -12 -23 -28 31 -14 -15 -10 38 -8 46 -13 39 42 -40 45 -9 -25 -45 -2 48 -35 49 -20 -49 52 61 -54 65 -56 -19 -36 59 -52 -61 -47 -32 79 70 67 -67 72 -69 -70 86 -72 74 -74 75 76 -43 78 82 81 -57 -53 -77 -64 -76 -60 -62 -71 -83 -87 94 -90 -91 101 99 -88 -96 -68 -73 100 106 102 -84 -95 114 -75 -86 108 109 117 111 -105 113 115 -89 -110 -113 -98 125 -116 -107 -112 123 -117 -121 126 -115 -127 -118 -124 131 -129
right_child=15 -3 3 8 7 -7 9 34 33 10 13 37 30 32 -16 17 -18 56 36 -21 -22 22 -24 24 -26 -27 29 -29 -30 -31 62 -33 -34 47 57 -37 -38 -39 40 -41 -42 54 -44 44 -46 51 -48 50 -50 -51 58 63 53 -55 55 80 -58 -59 85 60 64 -63 83 -65 -66 66 97 68 69 87 71 98 73 105 84 77 -78 -79 -80 -81 -82 88 93 -85 90 89 95 104 91 92 -92 -93 -94 103 96 -97 107 -99 -100 -101 -102 -103 -104 110 -106 120 -108 -109 112 -111 121 116 -114 118 119 122 128 -119 -120 124 -122 -123 129 -125 -126 127 -128 130 -130 -131 -132 -133
leaf_value=-0.17820656006677185 -0.03061628003498975 0.4841243732087937 -0.08188107929315154 0.10408789383202337 0.174558097035868 0.24909714354525497 -0.10002868120021426 0.078564489707787483 -0.031834131499829749 0.12161177647323573 0.062837424213659954 0.25191304049279223 0.05382222622896167 -0.058852126749137514 -0.10908031426530521 0.11646810534110012 -0.087783729436689703 -0.10332913060758617 -0.018125918471678073 0.21754199415799744 -0.15021474097785092 0.10385723057956918 0.17088180871326755 0.039139996907149394 -0.054691717212696021 0.10592865771071035 -0.1978920177786658 0.19782522449304363 -0.04803306631828573 -0.01076239013332859 -0.14922385583690903 -0.18403000136186984 0.081495437328854614 -0.078374027283168349 -0.22492772166337954 0.055913656656909179 0.072672033049162366 0.39190516849263751 -0.041826115639347995 -0.14369791428677792 -0.21223313042676553 -0.11956296863480848 -0.055797619382209888 0.014483306458224331 -0.10741301003282727 -0.13811867862353489 -0.16718063275086345 -0.080426905159357173 0.027862685278057867 -0.16393189935439248 -0.085228125713051425 -0.22698662173213405 -0.14584144534326898 0.020713948604812051 -0.092017675962208403 -0.22404194235265232 -0.2248039861220783 -0.13138702008779857 -0.22459742548133768 -0.11581033557056383 -0.22461195752289925 -0.22578054001764039 -0.22503323695763197 -0.1367406611500076 -0.13500682101931766 -0.11143819915515418 -0.22408770715811724 -0.11377927173231152 -0.15489767518126571 -0.2241639121749632 -0.14456783034116136 -0.22430324233391022 -0.14133028460081939 -0.22405713778012704 -0.22445936137739542 -0.22548606026731899 -0.22404508319651392 -0.16085098811244458 -0.19124004466223932 -0.19380245749828678 -0.18850908209272865 -0.2242938877953996 -0.22403887554187377 -0.22445178219335113 -0.22403338088291391 -0.22433309245880206 -0.22431878550543011 -0.22402798859200815 -0.2241139853967502 -0.22416799940018331 -0.22412958905799418 -0.22423118874476858 -0.22426922784442027 -0.22405095673291006 -0.22407416689988491 -0.22423913957421648 -0.22402089560775718 -0.22401772017563792 -0.22424210485648841 -0.22402666468152196 -0.22410095019037801 -0.22411025402413687 -0.22408765807122186 -0.22403587060651989 -0.22405125736084594 -0.22402543155312443 -0.22407026679719649 -0.22402933896089688 -0.2240247970325159 -0.22403445330244012 -0.22400742527746118 -0.22402587932102755 -0.22402253196740682 -0.2240030847165157 -0.22401785738179955 -0.22401064691851491 -0.22401079535539267 -0.22400720710346739 -0.22401331341302538 -0.22400532008053908 -0.22401539771632903 -0.22401615134689309 -0.22400755665689831 -0.22401739566110926 -0.2240115657898237 -0.22400590692810748 -0.22400944680248278 -0.22400169433457157 -0.2240149340166358 -0.22401113886875212 -0.22400354459606098 -0.22400133469135458
leaf_weight=136.15768894460052 10.32344409637153 23.124546446837485 57.028765548020601 26.205621048342437 33.875823067966849 44.385838294867426 22.131094578187913 24.778407840523869 17.24046233901754 91.268941983580589 40.610065551940352 26.303732989355922 13.549050361383708 42.764420149382204 26.119527946226299 11.903738557361068 160.35676013492048 9.1445398596115428 13.917164585553108 18.499872074928135 17.596968607977033 40.134311462752521 24.529033042490482 68.40691810939461 54.904125454369932 74.466351651586592 15.184933266602455 40.707541912794113 23.262243988458067 26.764399851672351 11.791551961563526 10.812837213277815 24.144779562018812 13.696932315360753 11.586951892357321 23.148160635493696 11.91773943370208 26.075182477943599 15.657275944016876 13.511942085810004 15.595140728633849 6.3892061505466691 23.481582271400839 27.752984995953739 24.046353759244084 12.174419559072705 19.171545513439924 10.815305131021885 13.147525331471114 14.402945581823589 8.0061541520990414 8.2240336425602418 8.440491658169778 8.159705816768108 11.732965325005354 9.9523012614808994 9.3890259107574803 16.661025526933372 7.4105017022229722 12.295528633985667 7.9545263135805753 12.88337116781622 8.7073784894309956 7.63293004175648 7.4799778303131452 7.9072881131432977 6.7657982353121024 8.060788107570259 6.4319632700644425 7.2911811498925081 8.3752021729014832 7.8401618255302292 8.0728442869149166 6.2630043467506793 7.1774366404861203 7.2357050431892267 8.7447459613904339 7.0443611745722583 6.7807315830141297 7.314318715594708 6.2652942771092048 7.0565265659242868 11.941457982175057 15.048106820322571 9.3516234145499784 7.1335546262562302 9.3621139992028493 6.5286991512402919 11.467791472561663 11.786500228568913 6.8629804300144306 6.9614762193523338 7.2688857764005652 7.7172676082700482 7.6704483483918002 10.970367978326975 6.8648983119055647 7.8523622215725482 7.2105312650091946 11.974454021546988 9.1422116244211775 6.7521235034801057 8.4797544684261066 8.2082205009646731 6.1928144297562531 6.5414348901249451 6.6318180011585346 10.222857569810001 6.6221646028570822 8.4848705623298866 11.293593334034087 8.1752293040044623 8.9693357790820283 8.6771380188874918 6.4120378065854338 7.309859392233192 6.1929482482373697 7.4979863804765046 7.3210417577065519 6.4583328254520875 7.2936425898224115 6.295727076008915 6.3803154709748924 6.8202165076509127 6.8994840043596923 8.8749856315553171 9.4357793470844609 6.1929846256971421 6.1847607246600091 6.8097943500615656 9.94128449866548 10.337807987350969
leaf_count=1115 1192 323 1338 1680 1161 1272 1176 1724 1483 1597 1009 1059 1211 1553 1701 866 1024 955 1106 1067 1374 1909 1273 837 1818 1435 967 1164 995 1832 1376 1066 1315 1638 1296 1291 933 931 1166 1128 1214 982 1797 989 1425 995 1872 1379 1037 1232 1121 932 1001 986 1469 1557 1032 1849 902 1589 952 1641 909 1090 1019 1235 1029 1118 964 1061 1140 1060 1260 971 978 986 1364 1096 1046 1033 980 950 1869 1945 1469 954 1251 1029 1723 1715 1013 971 999 1198 1173 1531 1087 1246 1003 1889 1376 1010 1287 1287 962 1034 1018 1609 1046 1332 1804 1290 1418 1390 1017 1165 987 1198 1165 1033 1159 1000 1019 1082 1099 1419 1505 993 983 1085 1592 1658
internal_value=0 -0.0085467 -0.0154707 0.00955238 0.0458307 0.0709873 0.058707 -0.00980745 -0.0941401 0.109982 0.130194 0.194536 -0.0453588 0.0678401 0.0369389 -0.19341 -0.129305 -0.05484 -0.0035385 0.0659502 0.001926 0.0602301 0.0304094 0.00232303 0.0215638 0.0430704 -0.00229857 0.130412 0.0481238 -0.0785001 -0.139499 -0.0517467 -0.00820646 -0.155498 -0.0829959 -0.0203061 -0.0632064 0.321604 -0.0566501 -0.0211285 -0.12686 -0.201127 0.0131887 0.00413049 -0.0421036 -0.159086 -0.0899113 -0.170992 -0.0541878 -0.0922794 -0.18123 -0.173771 -0.135683 -0.0639724 -0.210615 -0.160656 -0.164868 -0.169756 -0.190869 -0.176731 -0.186979 -0.18319 -0.19964 -0.206379 -0.201762 -0.213956 -0.184519 -0.215632 -0.199477 -0.214424 -0.211418 -0.195778 -0.218202 -0.200332 -0.219811 -0.212761 -0.179935 -0.217617 -0.221814 -0.219336 -0.210315 -0.224877 -0.224158 -0.224665 -0.224044 -0.22432 -0.22437 -0.224048 -0.224196 -0.224241 -0.224028 -0.224158 -0.224207 -0.224039 -0.224024 -0.224276 -0.224016 -0.22405 -0.224274 -0.224054 -0.224068 -0.224072 -0.224059 -0.224023 -0.224022 -0.224032 -0.224049 -0.224013 -0.224012 -0.224021 -0.224018 -0.224023 -0.22401 -0.224009 -0.224016 -0.224014 -0.224018 -0.224014 -0.224005 -0.224012 -0.22402 -0.224011 -0.224012 -0.224014 -0.224009 -0.224004 -0.224006 -0.224003 -0.224013 -0.224009 -0.224002 -0.224001
internal_weight=0 1668.54 1645.42 1348.9 999.288 688.145 643.759 311.143 349.615 337.154 291.875 143.648 194.768 148.227 189.87 577.008 296.514 30.4373 134.859 62.3025 43.8026 163.751 129.875 306.605 249.577 194.673 105.346 81.3176 63.3966 41.9493 59.9089 24.3619 66.9092 154.847 121.272 45.2793 72.5569 52.3789 93.0243 61.7719 31.2524 546.571 48.26 120.206 51.7993 100.639 60.6392 137.606 41.4676 28.3201 123.909 90.3151 41.658 16.6002 445.932 27.9506 18.5336 28.248 113.094 79.4946 71.4884 25.0578 35.547 48.6571 59.1929 417.982 22.5254 395.456 54.2753 46.2145 51.7129 23.4259 341.181 28.1709 313.01 117.436 15.134 102.302 95.2575 41.0241 16.2176 33.7098 88.4768 23.7555 195.574 33.5994 28.287 39.7825 25.4858 26.1889 188.397 18.4293 19.0554 81.2411 181.534 20.3325 144.434 14.6182 15.0507 37.1001 25.1257 27.1733 20.4212 54.0677 32.4914 20.0981 15.9834 136.763 126.54 22.8478 46.3505 28.7612 103.693 94.7234 26.2986 33.9424 20.5529 14.3629 60.781 19.7699 13.8351 17.5893 27.3202 14.1301 13.3578 53.46 18.1129 35.3471 12.3777 13.1901 26.4721 16.5308
internal_count=163685 79227 78904 76765 40221 20209 18937 20012 36544 11095 8628 3587 16808 5041 9838 84458 2139 2853 10301 4121 3054 8137 6976 7842 6504 4686 5703 2173 2904 2799 6507 2277 2868 19736 10174 2467 6180 1990 7029 4649 2380 81605 3521 3251 2414 12514 5247 18253 3375 2338 16615 11322 4623 1987 69091 4006 1987 3145 15236 10666 9545 2636 4230 6699 7956 65085 3510 61575 8283 7165 6937 3203 53292 4424 48868 18189 2346 15843 14747 5609 2537 4576 13701 2854 30679 4570 3734 6201 3644 3668 29701 2694 2714 12715 28688 2782 22936 2275 2063 5752 3863 4166 3156 8549 5140 3164 2487 21763 20154 3617 7351 4547 16537 15119 4178 5397 3260 2285 9722 3149 2193 2804 4351 2247 2132 8557 2895 5662 1970 2104 4243 2651
is_linear=0
shrinkage=0.222596


Tree=4
num_leaves=131
num_cat=0
split_feature=50 97 2 12 92 10 8 22 18 22 28 70 12 70 105 132 69 18 5 70 79 129 10 151 70 111 16 133 8 10 151 121 149 133 132 114 6 28 139 24 28 53 149 79 138 54 132 0 7 81 28 22 127 140 145 18 54 99 145 11 151 56 111 5 62 6 50 11 7 25 5 79 0 37 118 123 66 7 113 28 105 105 25 18 105 18 105 11 105 7 18 56 24 81 105 147 102 132 8 79 81 132 66 149 136 79 50 133 113 7 113 24 11 79 7 55 28 104 6 116 105 104 18 121 139 31 123 111 11 111
split_gain=238.363 63.0535 61.4037 67.1471 47.5201 30.8548 20.0864 18.6732 16.0253 19.5223 15.9727 14.6068 12.9302 12.7907 12.4551 13.9317 12.1185 11.7867 11.7849 15.0737 11.8158 10.4955 10.4788 9.83482 11.3382 9.73091 10.45 9.0852 8.76654 6.96862 12.3527 6.81484 6.4813 6.28609 5.94293 5.79917 5.16249 4.97422 4.41372 5.02366 4.09543 3.81178 3.87697 6.51131 3.79935 2.63297 2.55889 2.4675 3.05974 4.62956 2.36328 2.18863 2.18801 1.89334 1.88148 1.81938 2.92858 1.71284 1.93689 1.40256 1.1835 1.1624 2.78852 0.729156 0.724842 0.717917 1.25499 0.917256 1.46278 1.51331 0.635337 0.913263 0.489337 0.41703 0.309789 0.432682 0.181283 0.125306 0.100233 0.00187246 0.000570582 0.000406597 0.000331711 0.000216118 0.000146229 4.41228e-05 4.20727e-05 6.69808e-06 4.11721e-06 3.07008e-06 1.32536e-06 8.69253e-07 4.41433e-07 8.35949e-07 4.13479e-07 3.37477e-07 2.03176e-07 1.69943e-07 2.48343e-07 1.67452e-07 1.27502e-07 1.00185e-07 8.96945e-08 1.65698e-07 7.69065e-08 6.98589e-08 5.50213e-08 4.84274e-08 8.44035e-08 4.06019e-08 4.31611e-08 2.95452e-08 2.28509e-08 3.24438e-08 2.27511e-08 1.47931e-08 1.33964e-08 1.25623e-08 9.55864e-09 5.42467e-09 3.75543e-09 3.51591e-09 2.35939e-09 1.22957e-09 5.62748e-10 1.3258e-10 4.1922e-13 1.13687e-13 1.42109e-14 7.10543e-15
threshold=15134.045000000002 2.5000000000000004 1.0000000180025095e-35 7.5000000000000009 1.0000000180025095e-35 -297.39499999999992 33878.220000000008 343.685 39061.320000000007 -3005.6199999999994 4236.3750000000009 3394.0150000000003 5.5000000000000009 1728.3450000000003 21.500000000000004 106977.60000000002 1.0000000180025095e-35 306.52000000000004 43.500000000000007 1728.3450000000003 22112.220000000005 1.0000000180025095e-35 -1096.9949999999997 6480.8250000000007 2326.7100000000005 -1809.4999999999998 -95.164999999999978 -1354.4999999999998 7828.005000000001 -3094.3999999999992 1202.3250000000003 4.0000000000000009 10.500000000000002 -1354.4999999999998 187210.80000000002 395.63500000000005 84.500000000000014 1283.7500000000002 1.0000000180025095e-35 1.5000000000000002 4236.3750000000009 1.0000000180025095e-35 6.5000000000000009 31692.700000000001 1.0000000180025095e-35 70.440000000000012 93605.400000000009 773157506.00000012 598.61500000000012 8914.8350000000009 1283.7500000000002 343.685 5.5000000000000009 577982.88000000012 -9358.1499999999996 5198.3050000000012 70.495000000000019 1.0000000180025095e-35 -24223.784999999996 332.15000000000003 1812.2850000000003 8582.9950000000008 -623.49999999999989 42.500000000000007 9198.3300000000017 84.500000000000014 201450.14500000005 383.42500000000007 -1651.8049999999998 22074.135000000006 63.500000000000007 94351.395000000004 644979981.00000012 25814.835000000003 63342.000000000007 -421.25499999999994 123.37500000000001 3188.8650000000002 1266.2700000000002 2755.9650000000006 46.500000000000007 85.500000000000014 13231.645000000002 6938.4550000000008 60.500000000000007 15335.440000000002 103.50000000000001 1326.3050000000001 53.500000000000007 598.61500000000012 44387.945000000007 912.1400000000001 35.500000000000007 17541.410000000003 53.500000000000007 1520.5000000000002 5806.3500000000013 93605.400000000009 3901.8700000000003 175654.16500000001 7038.0100000000011 93605.400000000009 160.20500000000001 8.5000000000000018 23249.985000000004 175654.16500000001 201450.14500000005 -1627.9999999999998 5259.3750000000009 -1651.8049999999998 8054.0750000000007 21.500000000000004 332.15000000000003 44111.125000000007 1.0000000180025095e-35 5.5000000000000009 24531.175000000003 5900.1900000000014 60.500000000000007 1.0000000180025095e-35 160.50000000000003 2287.3500000000004 26557.340000000004 4.0000000000000009 1.0000000180025095e-35 2583.9450000000002 -11207.349999999997 -1809.4999999999998 621.86500000000012 -866.49999999999989
decision_type=2 2 2 2 2 2 2 2 2 2 2 2 2 2 2 10 2 2 2 2 2 8 2 10 2 10 2 8 2 2 10 8 10 10 8 8 2 2 10 2 2 2 10 2 8 2 8 2 2 2 2 2 8 10 8 2 2 2 8 2 10 2 8 2 2 2 2 2 2 2 2 2 2 2 8 8 8 2 10 2 2 2 2 2 2 2 2 2 2 2 2 2 2 2 2 10 2 10 2 2 2 10 8 10 10 2 2 10 10 2 10 2 2 2 2 2 2 2 2 10 2 2 2 10 8 2 10 10 2 10
left_child=1 2 27 4 5 11 10 -6 9 12 14 21 -7 -9 -5 -16 37 -12 19 31 25 28 -18 24 32 -20 -27 -1 29 -4 -31 -11 52 -32 -22 -26 -14 44 39 -30 -10 42 54 -44 -2 50 -43 77 49 -49 -8 -25 72 60 59 -54 -57 65 78 -23 -52 73 -63 82 -48 66 67 68 -39 84 74 -72 -19 79 75 -67 94 80 -59 -47 -46 -53 -50 -62 -70 -83 -81 -87 -76 -82 -88 101 95 -94 -69 96 -90 98 -96 102 -101 -86 106 -104 -102 109 107 108 114 -99 111 118 113 -109 -97 119 -108 120 121 125 -106 -111 -116 124 -121 126 127 -114 -129 -130
right_child=16 -3 3 6 7 8 45 13 40 18 17 -13 36 -15 15 -17 22 23 20 -21 34 41 -24 51 35 26 -28 -29 38 30 33 -33 -34 -35 -36 -37 -38 57 -40 -41 -42 46 43 -45 47 61 64 48 63 -51 53 81 55 -55 -56 56 -58 58 -60 -61 83 62 -64 -65 -66 70 -68 76 69 -71 71 -73 -74 -75 88 -77 -78 -79 -80 86 89 85 -84 -85 91 87 90 -89 92 -91 -92 -93 93 -95 97 99 -98 105 -100 100 104 -103 103 -105 117 -107 116 112 -110 110 -112 -113 115 -115 122 -117 -118 -119 -120 123 -122 -123 -124 -125 -126 -127 -128 128 129 -131
leaf_value=-0.14824756837920935 -0.027331329212386891 0.33471433713866011 -0.091295206064836987 -0.048983546265467859 0.27489363247254361 0.091089091019926058 -0.050939419507942063 -0.020102905413620375 -0.037320744569592487 0.12510551812470891 0.053156475664074068 0.17956445412497998 -0.06561089368139518 0.21586163171134382 -0.038142610021967283 0.1833275236622188 -0.2289739913508253 -0.16207086483416949 0.14589742604628081 0.21351767871039637 -0.15319531330438618 -0.096143940294454208 0.0512162616903429 -0.11195889643672158 0.1028529457343446 0.11666626900484731 -0.035597345399865608 -0.069121187130817274 0.021532256107624041 -0.056270922205782004 0.23580217035996096 -0.015700632363289602 0.004962577765958545 0.053189722811946588 0.030427059040517117 -0.085016569433198852 0.019501230344900249 -0.07686836460153651 -0.19209727354419301 -0.14051305581815071 -0.18975605975728699 -0.065593248125064396 0.12006609124857787 -0.11400121912136268 -0.22639412970872397 -0.22833446955234024 -0.22633900653120928 -0.1541326777678684 -0.22609108341926162 0.047214976182396548 -0.12186862863826815 -0.2262167154528571 -0.0518246039005631 -0.086235579298284543 -0.069617946696218402 -0.086869335863230548 -0.22575937479851305 -0.22394089042166462 -0.079608853404842833 -0.19573572993880539 -0.22581295016700476 -0.035902136021590682 -0.22405781861247068 -0.14058808365718123 -0.14715362436872412 -0.13888184851881646 -0.12740721788156453 -0.22381735211468753 -0.22510151628005431 -0.11212155685666579 -0.22380405377180976 -0.10177935508107436 -0.22620320942959216 -0.1665415363230181 -0.223920020183906 -0.22376227132109469 -0.1800689728009803 -0.18959434659937677 -0.18468604342298559 -0.22470136818437242 -0.22409710241119063 -0.22486941151578327 -0.2239011278122012 -0.22414805167621682 -0.22377546425580941 -0.22437076744936862 -0.22407704103389459 -0.22407294883967324 -0.22380398731511206 -0.22389583189381432 -0.22393130177161588 -0.22386145439288918 -0.22384461938176689 -0.22372749055506694 -0.22380874312744084 -0.22373920773489747 -0.22374614717828192 -0.2237563906542365 -0.22374994288563455 -0.22377960219037482 -0.22376390940700544 -0.22373660602401046 -0.22377795750209295 -0.22372808310423431 -0.22373511213915695 -0.22376674817428602 -0.22374921529404837 -0.22372222472069167 -0.22375999104603345 -0.22372264647242512 -0.22375559895034411 -0.22374782819469163 -0.22371922476521022 -0.22374592368275814 -0.22372632340051421 -0.22373249936960829 -0.22373518696786868 -0.22374333849400568 -0.22373610478769296 -0.22372163952781227 -0.22372734377015394 -0.22373018556158586 -0.22372019305341556 -0.22372657158868631 -0.22372454528937183 -0.22372047856903035 -0.22371932164144254 -0.22371924886414604 -0.22371925421815084 -0.22371926190954874
leaf_weight=139.34373578149825 11.278948006685823 26.09821793762967 16.324529226403683 57.184047822840512 52.734587441198528 62.346077200490981 17.352487662341446 26.479148630518466 28.093860186170787 42.655148846097291 28.475026764441282 13.985720114782451 84.642020300962031 19.96449475036934 23.109280419535935 35.994683515746146 10.201666198205205 10.44511384284124 69.125550258904696 71.814962978474796 17.179323328193277 13.484945598058404 18.804137351922691 11.71317745419219 22.914132342208177 41.540622603148222 48.302882410120219 148.54857367230579 23.780703524127603 22.89569556247443 20.1512501379475 28.351261038798839 18.325143189169466 17.409515669569373 17.764082694426179 12.62767228623852 60.586564386729151 6.0560328266583374 13.110420202836393 15.762730332091449 12.672088860999791 9.7107346300035697 11.554741742555054 12.008903726469724 7.1154060089029434 7.8486479548737433 17.050497410353277 15.257296988274904 6.0357927815057355 8.9934996329247934 8.5791211617179233 8.535404715221377 15.040733883623032 14.459732414688913 33.230471237562597 17.576740384567533 13.150105303619055 7.4631118704564852 10.759500948712232 14.584668993484227 7.576112457085399 7.0987536772154272 8.6686521372757834 8.0062709688208979 8.6253038281574828 5.2394039002247155 11.517700504511593 5.1219451255165032 5.4097366435453358 7.9673193288035682 6.8395427833311242 5.4691370013169944 13.532680981792508 7.6613815785385659 6.3613566216081372 6.8872743160463852 5.0923278536647549 6.4737364053726187 5.6728106620721519 6.5309114311821785 6.5761025724932543 7.1274430942721692 7.9292220282368362 7.8828350394032896 6.4444021475501376 6.4897829056717447 6.0858869194053096 8.8368362379260343 5.2351186000742 8.7537090657278878 6.2845919444225729 5.4364945073612025 5.3758536637760681 6.8870143466629088 5.5906557370908549 5.838636165484778 7.0771822696551681 6.370196305681012 9.7935830475762469 5.1764048896729973 5.5759377493523088 6.7111438144929707 5.1454381826333693 9.2058513928204757 5.0200462988577801 5.7294428767636409 5.1726123015396288 6.7873258851468687 5.0557688754051915 8.1226066560484629 5.0168645041994742 5.1955192685127249 6.1353066274896078 4.9494526642374694 5.0157108590938142 5.7156028328463426 9.6946587618440372 5.1395000168122342 6.2041345918551078 9.2069017183966935 7.9927693260833621 4.9225206957198671 8.1904576704837364 5.5960665573365977 5.1493816692382106 4.9465838484466067 4.9216463691555097 7.2346108919009628 7.0897520841099206 16.437942541204407
leaf_count=1152 1319 795 1438 987 1463 791 804 1454 1838 1632 1745 1021 1689 1158 999 1551 1192 1017 1756 1948 1106 797 1661 1142 1613 1074 1777 989 1688 974 1198 930 1776 1064 916 1176 1461 1071 1435 1797 1538 1024 905 1332 817 521 1747 1902 930 1147 952 786 796 1931 1312 1487 1269 1286 1733 1410 772 1146 1393 1370 1203 941 1813 965 897 1404 1297 959 1242 1029 1157 1336 971 1092 987 830 1015 842 1384 1232 1232 917 965 1417 977 1538 1078 969 971 1369 1041 1150 1386 1237 1911 985 1077 1324 981 1829 992 1103 1010 1355 978 1621 974 1016 1228 969 998 1131 1915 1009 1224 1839 1589 976 1638 1113 1026 989 985 1448 1419 3290
internal_value=0 -0.00857817 -0.0139985 0.00570452 0.0384534 0.0214166 -0.0687211 0.184251 0.0499081 0.0599899 -0.0402028 -0.0418048 0.00629711 0.08133 0.0250782 0.0967341 -0.186773 -0.0791751 0.0930881 0.141611 0.0573501 -0.0542045 -0.0473298 -0.101832 -0.0700168 0.0831116 0.0348042 -0.107419 -0.0102159 0.0377568 0.0726036 0.0688848 -0.112843 0.151161 -0.0598477 0.0361047 -0.0301038 -0.195786 -0.0801706 -0.0430619 -0.0847052 -0.101553 -0.0759614 0.000776748 -0.147799 -0.15239 -0.162926 -0.165881 -0.133975 -0.0794621 -0.119142 -0.193927 -0.143796 -0.149883 -0.105459 -0.115259 -0.14631 -0.20723 -0.149633 -0.147891 -0.18817 -0.189397 -0.139347 -0.194144 -0.199738 -0.211297 -0.197165 -0.204803 -0.177178 -0.19618 -0.218733 -0.169585 -0.198266 -0.21233 -0.221622 -0.187089 -0.220444 -0.216878 -0.206988 -0.225444 -0.224747 -0.224909 -0.224848 -0.224964 -0.224083 -0.224412 -0.224244 -0.224199 -0.223744 -0.223982 -0.224003 -0.223787 -0.223738 -0.223779 -0.223757 -0.223735 -0.223771 -0.223751 -0.223771 -0.223733 -0.223748 -0.223756 -0.223729 -0.223746 -0.223741 -0.223744 -0.223727 -0.223726 -0.223734 -0.22374 -0.223737 -0.223733 -0.223723 -0.223732 -0.223728 -0.223722 -0.22374 -0.223734 -0.223729 -0.223721 -0.22373 -0.223725 -0.223723 -0.223724 -0.223723 -0.223719 -0.223719 -0.223719 -0.223719 -0.223719
internal_weight=0 1679.02 1652.92 1365.03 947.924 848.745 417.107 99.1782 585.074 544.308 311.078 263.671 207.575 46.4436 116.288 59.104 477.79 194.79 336.734 142.821 193.912 249.685 29.0058 166.315 123.612 158.969 89.8435 287.892 129.435 76.781 60.4565 71.0064 88.0705 37.5608 34.9434 35.5418 145.229 448.784 52.6539 39.5434 40.7659 120.25 84.8637 23.5636 86.42 106.029 35.3865 75.141 46.2221 24.2508 55.8503 42.7026 69.7454 38.4978 61.3001 45.7676 30.7268 362.364 23.8954 28.0696 24.0381 50.1788 15.7674 21.9713 25.6758 338.469 116.703 105.185 38.0251 31.9691 221.766 12.3087 23.9778 34.4114 209.458 12.1267 67.1598 28.919 13.1359 26.75 22.4452 30.9895 13.965 15.4589 24.0018 22.4541 18.9014 15.3266 197.331 15.3298 12.3705 18.592 190.97 12.2629 62.0675 178.707 12.3123 56.9455 15.3842 166.394 28.9047 13.1555 137.49 14.3513 23.7283 41.5613 123.138 108.271 24.1006 35.8318 29.4616 24.4448 84.1706 11.7368 19.0448 72.4338 14.8673 18.1523 19.2493 66.7182 13.0128 13.0451 13.2062 19.9523 14.3563 46.7658 41.8193 36.8976 30.7623 23.5277
internal_count=163685 79227 78432 76291 42876 38801 33415 4075 18456 15080 20762 20345 3941 2612 3537 2550 84458 17225 11139 4510 6629 19324 2853 15480 10376 4607 2851 2141 9594 4674 3236 2562 7587 2262 2022 2789 3150 81605 4920 3485 3376 9730 5756 2237 12514 12653 3974 11195 6733 3049 5691 5104 5811 4887 3519 3552 2756 69091 4006 2207 2956 6962 2539 3684 2950 65085 21749 19936 6897 5826 43336 2256 2259 4423 41080 2277 13039 4462 2273 3394 3370 3962 2314 2004 4422 3176 2873 2334 38803 2553 2043 3525 37646 2340 12068 35306 2363 11103 2952 32943 5652 2556 27291 2810 4667 8151 24481 21556 4764 7048 5811 4837 16792 2324 3786 14468 2925 3590 3821 13337 2581 2597 2636 3978 2865 9359 8370 7385 6157 4709
is_linear=0
shrinkage=0.222596


Tree=5
num_leaves=140
num_cat=0
split_feature=50 109 2 31 79 78 95 8 70 12 96 16 18 10 105 6 22 22 16 69 132 136 8 138 20 145 56 7 110 11 12 7 56 136 138 10 5 11 136 145 72 22 25 24 136 138 145 145 96 10 95 22 78 111 97 9 95 151 18 138 80 16 133 22 132 11 136 6 66 25 27 24 122 11 147 20 79 5 118 127 140 80 147 70 145 105 105 11 105 12 105 145 50 12 7 99 11 7 5 27 25 18 25 27 24 81 129 147 79 79 72 102 132 8 66 138 11 79 50 116 7 72 133 113 81 94 55 22 10 133 116 139 127 16 113 105 110 6 9
split_gain=189.603 44.6339 34.8908 46.911 33.6162 18.2104 19.8718 15.4253 13.8852 15.3963 15.8313 13.8635 15.9781 12.1366 18.4902 18.0117 17.9821 12.337 18.7401 11.6688 11.6596 11.4217 10.6965 10.2563 10.7173 9.836 13.7352 9.39624 9.3086 9.29031 8.00524 12.712 7.92448 7.40597 7.17725 6.40162 6.30106 5.94747 5.39249 5.38313 5.2123 5.20384 5.14627 9.82975 4.88065 4.64049 4.64049 8.36126 4.01792 5.18613 3.15447 3.83915 3.06499 2.67865 2.61473 3.73429 2.36146 2.10127 1.74389 1.63817 3.95281 1.39246 1.31637 1.15126 3.65566 1.3323 1.10987 1.06801 2.04345 1.86488 2.5443 1.60807 0.867938 0.453834 0.447538 0.495381 0.381321 0.509068 0.355804 0.523547 0.214024 0.204736 0.141335 0.11645 0.0940686 0.00399142 0.00275323 0.000187991 0.000150368 0.000128711 0.00011474 2.46409e-05 1.09429e-05 7.96028e-06 4.22485e-06 3.58541e-06 2.92156e-06 2.64357e-06 2.10868e-06 1.87415e-06 1.68567e-06 1.34536e-06 7.1978e-07 2.55784e-07 2.13929e-07 2.86845e-07 1.91714e-07 1.44173e-07 1.00343e-07 6.96377e-08 9.21895e-08 6.70417e-08 5.31365e-08 5.77405e-08 4.20355e-08 5.64022e-08 2.31661e-08 3.36827e-08 2.38896e-08 2.24569e-08 2.98844e-08 1.81e-08 1.60894e-08 2.73587e-08 1.5e-08 9.02717e-09 6.5896e-09 4.67018e-09 3.70691e-09 1.92152e-09 1.68968e-09 3.79762e-10 8.45102e-11 1.86446e-11 1.53193e-11 2.41585e-13 2.4869e-14 3.55271e-15 1.77636e-15
threshold=15134.045000000002 1.0000000180025095e-35 1.0000000180025095e-35 510.14000000000004 22112.220000000005 1.5000000000000002 18.500000000000004 15696.840000000002 3394.0150000000003 8.5000000000000018 1.0000000180025095e-35 -619.6149999999999 2256.5600000000004 -204.29499999999999 21.500000000000004 46.500000000000007 -1513.3349999999998 -1513.3349999999998 -1.0000000180025095e-35 1.0000000180025095e-35 139352.40000000002 8310.4050000000007 26865.990000000005 882.97500000000014 82.540000000000006 -29507.499999999996 1717.2900000000002 1785.2100000000003 69676.200000000012 1.0000000180025095e-35 7.5000000000000009 2001.6200000000001 1127.5800000000002 5020.6600000000008 2613.0450000000005 -643.95499999999993 42.500000000000007 55.935000000000009 1444.1400000000001 -6171.1849999999995 1592.2150000000004 21570.255000000001 10329.445000000002 1.0000000180025095e-35 1444.1400000000001 1.0000000180025095e-35 -55166.049999999996 -86650.449999999983 1.0000000180025095e-35 -400.85999999999996 34.500000000000007 28320.370000000006 1.0000000180025095e-35 -2053.9999999999995 1.0000000180025095e-35 816.84000000000015 1.0000000180025095e-35 1014.6450000000001 13057.120000000001 25139.025000000005 1.5000000000000002 -3519.3449999999998 -1627.9999999999998 15434.120000000001 871218.37500000012 332.15000000000003 21003.355000000003 84.500000000000014 160.20500000000001 818.86500000000012 10.500000000000002 35.500000000000007 7763.755000000001 141.78500000000003 2303.5000000000005 64743.890000000007 387159.20500000002 47.500000000000007 63342.000000000007 4.5000000000000009 211140.00000000003 10.500000000000002 1175.5000000000002 1256.6050000000002 -72722.229999999996 46.500000000000007 46.500000000000007 436.10500000000008 73.500000000000014 7.5000000000000009 46.500000000000007 -17891.829999999998 201450.14500000005 7.5000000000000009 957.0250000000002 1.0000000180025095e-35 383.42500000000007 598.61500000000012 63.500000000000007 2.5000000000000004 22074.135000000006 30237.890000000003 11730.005000000003 2.5000000000000004 35.500000000000007 22580.540000000005 252.19500000000002 1520.5000000000002 155827.76500000004 175654.16500000001 626.87500000000011 10615.650000000001 93605.400000000009 6504.505000000001 160.20500000000001 17140.620000000006 332.15000000000003 63974.540000000008 201450.14500000005 933.4000000000002 -1050.3449999999998 936.53500000000008 -1627.9999999999998 2374.3400000000006 25240.460000000003 1.0000000180025095e-35 5.5000000000000009 46218.385000000002 -1096.9949999999997 -1444.4999999999998 1.0000000180025095e-35 1.0000000180025095e-35 2.5000000000000004 -1939.4749999999997 1266.2700000000002 79.500000000000014 69676.200000000012 129.50000000000003 544.06000000000006
decision_type=2 10 2 2 2 2 2 2 2 2 2 2 2 2 2 2 2 2 2 2 10 8 2 10 2 10 2 2 10 2 2 2 2 8 10 2 2 2 8 10 2 2 2 2 10 8 8 10 2 2 2 2 2 8 2 2 2 10 2 10 2 2 8 2 8 2 8 2 10 2 2 2 10 2 8 2 2 2 8 8 8 2 10 2 10 2 2 2 2 2 2 8 2 2 2 2 2 2 2 2 2 2 2 2 2 2 8 10 2 2 2 2 10 2 8 10 2 2 2 10 2 2 10 10 2 2 2 2 2 10 10 8 10 2 10 2 10 2 2
left_child=1 2 29 4 5 8 -7 11 9 10 13 52 -13 23 17 -16 -17 40 -19 44 -21 -8 28 -4 32 46 35 -18 36 -1 31 42 -25 -32 41 -27 -6 -9 -20 57 -15 -24 43 -30 45 -2 47 -14 56 -50 -35 -52 -5 -47 67 -56 -39 -11 -38 83 -61 -54 89 82 65 -65 -22 68 69 70 -46 73 76 -71 -64 85 78 -78 79 -69 -48 92 86 -36 -62 -76 -55 -87 -85 -58 -80 93 96 -89 -67 98 100 -88 99 -92 106 -95 -96 -98 107 -106 -75 111 112 114 -111 -101 113 -105 116 -116 117 129 122 120 -114 -120 123 128 -112 -122 130 -127 -118 -109 133 132 -132 -124 135 -135 -137 -138 -139
right_child=19 -3 3 7 22 6 21 37 -10 39 -12 12 25 14 15 16 27 18 38 20 66 -23 34 24 -26 26 -28 -29 30 -31 33 -33 -34 50 59 -37 58 48 -40 -41 -42 -43 -44 -45 54 53 80 -49 49 -51 51 -53 61 63 55 -57 62 -59 -60 60 84 -63 74 64 -66 94 -68 72 -70 71 -72 -73 -74 81 75 -77 77 -79 90 -81 -82 -83 -84 88 -86 87 97 91 -90 -91 95 -93 -94 101 102 -97 103 -99 -100 104 -102 -103 -104 108 105 -107 -108 109 -110 110 124 -113 119 -115 115 -117 118 -119 121 -121 125 -123 126 -125 -126 127 -128 -129 -130 -131 131 -133 -134 134 -136 136 137 138 -140
leaf_value=-0.12272764700159802 0.004565311028161833 0.26177037116105278 -0.12251656724736094 -0.062776325701372912 -0.012676063129384716 0.043227863403299281 0.36752638583625702 0.0066312590838507142 0.17790064846727602 -0.19953267288087201 0.15624479185366194 0.14562033833967963 -0.19680452407496279 -0.049884792378315626 -0.046892475782795796 0.29923971853001208 0.19850235710614789 0.19785723185105591 0.062972731417374819 0.15532365614395321 -0.09016078875278212 0.13577829198863942 0.055987309828429359 0.15833021532974551 -0.13939200714745148 -0.16647666187095714 0.19026519568307917 0.018235416728092774 -0.043162971204294326 -0.041186597990702227 0.099990301119571454 0.19787521574204603 -0.0086097522360307176 -0.17280299759960571 -0.18943815253999793 0.041161688789189715 -0.19696217645944342 -0.079632320609955565 -0.051777036451350164 0.0085141768937394332 0.018490507379562551 -0.1185050478031659 -0.089609311904805478 0.17161406578916044 -0.19421956400060719 -0.057972396439135862 -0.16772775130731271 0.12235664099501367 0.044069491690475207 -0.19884462694769012 0.046394932255510946 -0.13353983267931852 -0.21740989490390672 -0.22931128217332108 0.047687422542630371 -0.22370513922906077 -0.13261735647397707 -0.088632229675311827 -0.098622030381629866 0.010693936844787979 -0.1838547602607046 -0.12760993368453952 -0.16749403170780991 -0.095596327673623666 -0.016339712658385415 -0.22390368458533028 -0.20037198442897786 -0.12295930364232158 -0.051578314860521932 -0.16164867115554596 0.015647750046387115 -0.080287259916730455 -0.11521271068795709 -0.2235841585528858 -0.22987584523822507 -0.16207795981487336 -0.2235388711006529 -0.11722679181827288 -0.22470117462658842 -0.22355485921352247 -0.21104925409755645 -0.174826181759796 -0.18616337985166592 -0.22531250024069166 -0.22398156784849946 -0.22524494713086435 -0.2238119056026881 -0.22409572618534152 -0.22398338768865997 -0.13128447601381238 -0.22361786037889197 -0.22443575995664761 -0.22388151652528387 -0.22389063879726262 -0.22373418350112606 -0.22368855348533356 -0.22359372051825857 -0.22359467607669958 -0.22363266704097087 -0.22355435733522938 -0.22375671442347184 -0.22374165787760142 -0.22362469821640793 -0.22356569972444421 -0.22358242508144949 -0.22350058533423439 -0.22364285087132144 -0.22350475420887791 -0.22356537277249408 -0.22354602087512246 -0.22351812500214727 -0.22351461786199253 -0.22353999567217409 -0.22352979454831387 -0.22353448066704151 -0.22350194924335748 -0.22350325647925615 -0.22352568751701937 -0.22351986453257761 -0.22354138694516842 -0.22350990663345044 -0.22350097022857879 -0.22349461153333613 -0.22351977985289312 -0.22350135007369609 -0.22352801696325766 -0.22350398047983497 -0.22351842359345778 -0.22349452325519983 -0.22349821975546538 -0.22349549570525951 -0.2234984613701437 -0.22349685887625143 -0.22349399740730339 -0.22349451373894785 -0.22349404010382767 -0.22349405559482693 -0.22349405600928762 -0.22349406108232608
leaf_weight=149.93418064247817 9.7163075068965554 29.769482283852994 43.904013665858656 23.180653086863458 31.541090340353549 49.338171272072941 21.020804484840482 12.019574103876947 31.596928602084517 16.238982895389199 50.391656410880387 30.707316334825009 7.9512907615862813 107.53291690908372 25.325242319144309 32.160065454430878 24.350364919286221 40.206902565434575 46.101072112098336 9.794963469263168 8.9151178179308754 21.128886113408953 15.5264845341444 23.511436983011663 17.684780315961689 14.801852809730919 16.536286430433393 34.805613618344069 24.830879838671535 128.62674433225766 12.068248733412473 23.301694840658456 35.156529064755887 16.702945818658918 6.4142033639363971 14.627746511716394 18.380657196976244 10.450025990139691 36.24548875587061 18.135406252462417 113.599360762164 18.62929414305836 19.49657896021381 18.369432950392365 7.4620618815533799 10.627059190534053 11.277343444060536 8.3257627626880986 9.9494969202205557 7.7445990522392085 11.404648226220162 12.118722164072095 15.339239221531896 7.0961736789904597 4.9187700441107136 5.1344620296731591 7.2070471276529116 17.684419354889542 17.386709056794643 6.6320677180774537 5.5581127852201471 19.347351000178605 11.56698594521731 5.1768313501961591 7.5014693895354858 5.0739357108250287 9.1991909933276492 4.4183045038953397 5.1736530093476167 7.1736361593939355 4.6433998574502766 4.6569219711236647 4.1091653285548082 7.4800372128374883 7.9380765277892342 7.1704276590608051 4.7803780199028534 4.186005269177258 4.2397815440781406 6.1064345720224091 11.324881432577966 4.5601392528042188 5.8528379704803219 7.2182323397137251 6.0409444305114421 8.4397953930310887 6.423839718103407 7.5231786663644042 10.145835747942327 7.1522288974374533 8.2122223926708084 5.8374434495344785 6.4007885828614226 5.2246565832756442 4.6414337609894565 6.5851932931691399 4.4862390514463177 4.8878958132117987 7.9092915328219524 4.1482959650456888 5.3108809934929004 7.0643296083435416 8.2880061562173051 4.3455155468545836 4.3546909955330175 4.1389218708500266 4.3677825587801644 4.3244089852087191 5.4596720738336435 4.2183691961690775 4.1677691638469678 4.2672428973019123 4.3150990819558457 4.5354291857220232 4.3991122180595976 6.6065555098466575 3.9914704589173189 4.1343139638192943 4.3498116671107692 4.4176240712404242 4.0096237664111003 5.946506077889353 4.0647925613448015 3.984703368972986 7.211027018725872 4.2468556505627966 4.3979149349033824 6.1633771010674536 6.0712912869639473 4.6033979007042936 4.906978194136169 5.5338484533131131 4.1671513067558408 4.3147395076230444 3.9687508326023808 4.3509545307606485 4.6312398910522488 5.7159957746043792 8.3899195962585491
leaf_count=989 1276 323 1721 1025 1743 1889 643 703 985 756 1411 1187 1077 1044 1104 1123 1001 877 1309 862 759 1366 781 1237 1436 1279 1307 1717 1430 1150 507 1407 1921 1543 1065 721 932 981 1016 801 1190 1852 1630 1206 1523 1533 989 981 1525 814 967 1400 1362 798 936 1077 867 1538 1472 1046 1001 1552 1564 787 1344 949 1232 903 1094 1507 1032 981 969 1726 413 1238 1146 967 865 1447 978 1009 1080 775 1042 926 1220 1233 1795 1102 1896 875 1134 961 959 1389 1045 1108 1741 974 1036 1426 1827 1015 994 1027 962 1069 1281 1000 1015 1044 1034 1097 1054 1637 988 1000 1058 1057 987 1475 1015 969 1788 1031 1087 1507 1516 1145 1224 1376 1038 1078 991 1087 1157 1428 2096
internal_value=0 -0.00837207 -0.0132308 0.00130735 0.0224758 0.0456095 0.139115 -0.078458 0.0336388 0.0269653 0.0365647 -0.0365065 0.00803151 0.0261771 0.0426267 0.119206 0.165271 0.016637 0.0732876 -0.179131 -0.040333 0.251355 -0.0437084 -0.0367897 0.0125047 -0.0417649 0.0279385 0.0924387 -0.0173112 -0.0850757 0.0157318 0.0574943 0.0582921 -0.0529467 -0.114965 -0.0632717 -0.0852021 -0.141563 0.0124647 -0.0893837 -0.0147593 -0.0391846 0.00532089 0.0481635 -0.189588 -0.138998 -0.124173 -0.0335526 -0.158811 -0.0622526 -0.0988292 -0.0463035 -0.125443 -0.160271 -0.202492 -0.0909202 -0.178777 -0.14172 -0.149159 -0.176579 -0.126379 -0.167322 -0.192568 -0.180058 -0.151406 -0.195115 -0.146131 -0.206426 -0.187776 -0.19527 -0.113719 -0.207319 -0.216378 -0.214975 -0.206892 -0.216154 -0.218665 -0.173906 -0.220987 -0.181325 -0.189434 -0.220432 -0.216294 -0.215068 -0.204753 -0.22538 -0.225874 -0.224334 -0.224536 -0.131953 -0.223558 -0.224034 -0.223605 -0.223915 -0.223732 -0.223528 -0.223575 -0.223718 -0.223521 -0.223515 -0.223653 -0.223805 -0.223664 -0.223543 -0.223508 -0.223543 -0.223606 -0.223506 -0.223537 -0.223504 -0.223518 -0.223534 -0.223533 -0.223547 -0.223502 -0.223515 -0.2235 -0.223509 -0.223499 -0.223527 -0.223524 -0.223509 -0.223497 -0.223504 -0.223507 -0.223519 -0.223496 -0.223522 -0.223498 -0.223501 -0.223495 -0.223497 -0.223496 -0.223494 -0.223494 -0.223494 -0.223494 -0.223494 -0.223494
internal_weight=0 1684.92 1655.15 1376.59 1087.89 806.119 91.4879 288.708 714.631 683.034 630.975 173.42 115.552 580.584 460.327 116.641 91.316 343.686 122.553 398.364 27.9093 42.1497 281.767 120.257 76.3527 84.8452 45.9659 59.156 205.602 278.561 138.293 85.9986 58.668 52.2946 76.1652 29.4296 67.3085 115.288 82.3466 52.0588 221.132 34.1558 62.6969 43.2003 370.455 75.2858 38.8793 16.2771 103.268 17.6941 40.2263 23.5234 57.8672 65.5695 295.169 10.0532 85.5742 33.9234 35.7674 42.0094 18.2311 34.6866 75.1242 54.9424 30.6817 23.1802 18.1143 285.116 99.2087 94.0351 12.1055 81.9296 185.907 77.2727 60.7649 49.1979 181.798 8.96638 172.831 10.5247 22.6022 70.0991 24.2607 23.7783 11.5991 42.0275 18.4079 34.0894 17.3641 14.3593 162.307 25.6496 65.5389 19.8122 18.0034 158.067 59.1381 11.3117 151.482 143.572 17.1587 12.289 12.9294 41.9794 135.36 8.49361 11.8478 126.867 37.4932 118.451 15.5972 8.41554 32.0335 8.88094 102.854 11.0057 91.8482 13.0621 78.7861 23.1526 18.735 10.2963 68.4898 14.0475 11.3788 14.4199 54.4423 10.4102 10.0628 8.92781 50.0444 14.608 9.07413 35.4364 31.3716 27.4028 23.0881 18.7372 14.1059
internal_count=163685 79227 78904 76765 49679 26085 3898 27086 22187 21202 18107 12458 8519 16696 10381 4945 3841 5436 3202 84458 2853 2009 23594 6315 4594 7332 3307 2718 14237 2139 10090 5673 3158 4417 9357 2000 4147 14628 2325 3095 2234 2633 4266 2636 81605 12881 4025 2058 13925 2339 3910 2367 3939 11605 68724 2013 11586 2294 2404 6724 3089 2914 10605 10072 5866 4522 1991 66711 22058 20964 2555 18409 44653 17428 8636 7072 43684 2113 41571 2350 1967 15921 4206 3635 2043 5834 3126 5421 2570 1969 39221 4495 14912 3620 3735 38356 13778 2328 36967 35226 3724 2387 2786 10054 33330 2021 2688 31309 9009 29291 3803 2018 7728 2112 25488 2691 22797 3214 19583 5616 4559 2533 17050 3473 2803 3525 13577 2538 2504 2214 12490 3638 2262 8852 7837 6846 5768 4681 3524
is_linear=0
shrinkage=0.222596


Tree=6
num_leaves=136
num_cat=0
split_feature=50 131 105 2 12 70 137 113 28 70 22 20 123 18 8 96 70 110 95 105 145 54 70 72 0 114 58 7 6 135 8 79 6 18 9 95 95 28 149 18 8 132 139 8 16 123 12 111 72 132 132 25 27 8 79 116 151 6 95 72 6 50 7 16 50 6 10 11 78 79 125 70 122 111 111 50 27 81 79 125 136 123 22 11 16 8 105 105 8 10 138 11 99 8 22 105 9 9 110 71 111 6 9 17 24 24 6 49 105 125 79 20 25 79 145 72 118 24 79 125 0 9 8 11 0 79 11 27 72 50 132 24 55 149 123
split_gain=148.581 71.3731 27.4084 27.6928 24.5556 20.8745 15.1372 12.6745 12.1482 16.683 10.9843 10.5288 10.411 12.9704 9.76517 9.06109 8.78338 14.1026 11.7548 9.56857 8.77919 10.7108 8.37065 7.82902 7.7463 7.59324 11.9047 7.54929 7.36385 9.62625 8.98157 6.92286 16.2217 6.80386 6.70544 6.21533 5.38161 5.48192 5.3226 11.6837 4.74255 4.72456 4.50573 4.06707 3.87396 3.59336 4.50448 3.58235 3.46794 3.76915 3.37537 3.3163 4.1629 3.23753 3.22034 3.02592 2.49982 3.62374 4.48861 2.46932 2.27313 4.78173 2.20411 2.0167 1.98371 1.92672 1.86275 1.68586 2.779 1.41314 2.54522 1.12197 0.815178 0.760226 0.3158 0.958782 1.48442 1.89755 0.485921 0.598749 0.293652 0.200335 0.156318 0.116199 0.0620261 0.000552978 0.000268236 0.000152356 0.00011948 5.63067e-05 2.24674e-05 1.48248e-05 5.74839e-06 4.19856e-06 3.604e-06 2.38877e-06 2.17599e-06 1.54903e-06 1.4803e-06 1.24754e-06 1.00912e-06 8.48045e-07 7.56188e-07 7.10664e-07 6.47826e-07 4.54426e-07 3.70525e-07 3.08533e-07 2.83615e-07 1.92184e-07 1.53311e-07 1.49632e-07 1.47395e-07 9.89884e-08 8.72203e-08 6.19501e-08 4.09356e-08 3.13068e-08 2.68572e-08 2.188e-08 2.0155e-08 1.99567e-08 1.37066e-08 9.58316e-09 9.13302e-09 8.1752e-09 7.44412e-09 6.01521e-09 5.9859e-09 4.17151e-09 3.01711e-09 2.29438e-09 7.64739e-10 9.28237e-10 4.61165e-10
threshold=15134.045000000002 8.0000000000000018 151.50000000000003 1.0000000180025095e-35 7.5000000000000009 3179.2400000000002 216.07000000000002 5259.3750000000009 2755.9650000000006 1256.6050000000002 132714.73000000001 1.0000000180025095e-35 -16463.904999999995 2256.5600000000004 38505.775000000009 1.0000000180025095e-35 1728.3450000000003 511858.13500000007 26.500000000000004 12.500000000000002 -1226.0999999999997 577.16500000000008 3394.0150000000003 284.00000000000006 842090463.00000012 395.63500000000005 1387.1800000000003 2001.6200000000001 196.50000000000003 16276.150000000001 9203.9300000000021 4717.8050000000012 162.50000000000003 10846.650000000001 1432.1550000000004 5.5000000000000009 61.500000000000007 4236.3750000000009 19.500000000000004 10846.650000000001 5175.9000000000005 93605.400000000009 10.545000000000002 12261.530000000001 -266.20999999999998 -5077.9999999999991 6.5000000000000009 -1809.4999999999998 284.00000000000006 267444.00000000006 93605.400000000009 7733.4650000000011 1.5000000000000002 9203.9300000000021 50557.820000000007 3540.1950000000006 3923.6850000000009 113.50000000000001 39.500000000000007 2921.0050000000006 67.500000000000014 201450.14500000005 773.80000000000007 -2380.0599999999995 52786.575000000004 179.50000000000003 -297.39499999999992 621.86500000000012 4.5000000000000009 63974.540000000008 497.50000000000006 1728.3450000000003 8815.7500000000018 -713.49999999999989 -1444.4999999999998 83922.22500000002 9.5000000000000018 1408.0800000000002 387159.20500000002 3627.5000000000005 16954.390000000003 -5077.9999999999991 95540.330000000016 2332.6200000000003 -1.0000000180025095e-35 19521.305000000004 53.500000000000007 60.500000000000007 15696.840000000002 -3665.4849999999992 1.0000000180025095e-35 857.24500000000012 1.0000000180025095e-35 10677.865000000002 15434.120000000001 53.500000000000007 1592.2150000000004 816.84000000000015 57007.80000000001 12.500000000000002 -2053.9999999999995 84.500000000000014 404.07000000000005 3.5000000000000004 7.5000000000000009 2.5000000000000004 93.500000000000014 3.5000000000000004 160.50000000000003 1735.5000000000002 31692.700000000001 82.540000000000006 2449.2150000000006 140036.71500000005 -29507.499999999996 172.35000000000005 63342.000000000007 29.500000000000004 78239.315000000017 1397.5000000000002 576967074.00000012 471.19500000000005 30140.545000000002 554.80000000000007 597041525.50000012 155827.76500000004 693.79500000000007 15.500000000000002 405.64000000000004 93187.500000000015 187210.80000000002 12.500000000000002 4.5000000000000009 5.5000000000000009 -3051.2999999999997
decision_type=2 10 2 2 2 2 10 10 2 2 2 2 10 2 2 2 2 8 2 2 10 2 2 2 2 10 2 2 2 8 2 2 2 2 2 2 2 2 10 2 2 8 10 2 2 10 2 8 2 10 8 2 2 2 2 10 10 2 2 2 2 2 2 2 2 2 2 2 2 2 10 2 10 8 10 2 2 2 2 10 8 10 2 2 2 2 2 2 2 2 8 2 2 2 2 2 2 2 10 2 10 2 2 2 2 2 2 2 2 8 2 2 2 2 10 2 10 2 2 10 2 2 2 2 2 2 2 2 2 2 10 2 2 10 8
left_child=1 2 3 27 5 6 7 10 9 15 11 16 13 -9 22 48 17 19 41 -5 21 28 25 35 -19 31 62 -1 29 30 -13 32 34 -23 -6 -21 37 -33 42 -40 -25 -18 47 -31 -43 46 -14 -4 49 50 54 52 -12 -39 -2 -41 57 58 -49 65 61 67 -27 -61 -52 -16 -8 68 69 81 -71 72 74 -59 75 76 104 -78 92 -80 -64 87 86 -65 -55 -75 -66 -10 89 -58 -50 -90 95 -92 -88 -76 105 -94 -97 -93 -95 114 -89 107 -62 -69 -77 110 111 -108 117 121 -112 116 -100 -114 -111 119 126 -103 122 -107 -120 -122 -118 131 -117 -127 130 -130 -121 -125 133 -131 -135
right_child=8 -3 38 4 14 -7 66 12 60 -11 51 20 45 -15 59 -17 18 24 -20 23 -22 33 -24 40 -26 26 -28 -29 -30 43 -32 36 -34 -35 -36 -37 -38 53 39 55 -42 44 -44 -45 -46 -47 -48 56 90 -51 64 -53 -54 84 -56 -57 88 73 -60 63 71 -63 80 83 82 -67 -68 96 -70 70 -72 -73 -74 85 78 106 77 -79 79 -81 -82 -83 -84 -85 -86 -87 94 102 91 -91 93 99 97 100 -96 98 -98 -99 101 -101 -102 103 -104 -105 -106 108 109 -109 -110 113 112 -113 115 -115 -116 118 124 -119 120 128 123 -123 -124 125 -126 127 -128 -129 129 132 -132 -133 -134 134 -136
leaf_value=-0.035477316694751244 -0.1310535393568652 0.38823460882863042 -0.012385854587394302 -0.14268823865458596 -0.12273382018587926 0.18671077655929677 -0.18620639431623609 0.23283755945270521 -0.22505678865944079 0.25735676775135363 -0.12182491731966537 0.21547152670278966 0.020497533764211415 -0.088921517434567207 -0.12801431040154748 0.15852977500342544 0.076263672593420428 0.1341766201859238 0.14310688264224969 -0.041104933659255584 -0.040855596405949116 -0.12230297442343242 0.10459651824879095 -0.0081257458231851279 -0.0015236466410825029 -0.10924804018668541 0.055417152229589074 -0.10976224779133575 0.21494725139435511 -0.031637389369594288 0.061817816092152457 -0.024622914363787073 0.1467663153533163 0.076045853786926951 0.014846282505345903 0.10984232762888564 0.034240252965124195 -0.084089100106556097 0.19561183552925548 -0.048736901281147077 -0.16033617212132867 -0.013118111109544034 0.0086351309246411063 0.090743937976698261 0.056856775858870695 -0.17116463925686351 -0.13710808745032757 -0.17664140141876541 -0.22419791726352464 0.062924306714540468 -0.082730466768931893 -0.17264813271840557 0.047310063470062391 -0.22616891501843597 0.078773574584496839 -0.2239892368400547 -0.2243213683917748 -0.14103078333383323 0.04565499481159252 -0.078253582974080041 -0.2235199098396406 0.0032223178381527752 -0.23440551274827623 -0.22579637110377751 -0.22564376774105374 0.002288320735926436 -0.075929206495546617 -0.22348386458115319 -0.017747866710235642 -0.22351095724090769 0.0042006440784583109 -0.13451185384915582 -0.11274673147315767 -0.22675805488135983 -0.22352757944584925 -0.223442191826767 0.038734006531424697 -0.17785645728027011 -0.099049133062144176 -0.22341201615090966 -0.18610524643836096 -0.1682383292956573 -0.17966694545980946 -0.18966178038763948 -0.20095869151884879 -0.22413470509993602 -0.22365096247600683 -0.22345012364115274 -0.22419719038387742 -0.22517749824200531 -0.22380786694042004 -0.22380547500876408 -0.22365211965010323 -0.22364533153683777 -0.22390922540572961 -0.22346144053030015 -0.22359737595018198 -0.22345802534204842 -0.223444465716469 -0.22365019466191313 -0.22350420901604054 -0.22334127032193515 -0.22356691517454444 -0.22344579860383557 -0.22339326687051153 -0.22337746328203653 -0.22340377359882471 -0.22339674325344716 -0.22345098571778463 -0.22336733136628406 -0.22337686536978749 -0.22341370268731894 -0.2233693888710413 -0.22338867601778734 -0.22339838549370894 -0.22333560370671815 -0.22334872651640172 -0.22334500701132726 -0.22334342410493624 -0.22332364666730067 -0.2233474613749816 -0.22335442760593285 -0.22336134946032396 -0.22332487101845871 -0.22333385854414603 -0.22334638768077397 -0.22332269208276981 -0.22333317695275437 -0.22332659348608422 -0.22332033041182503 -0.22333246254890735 -0.22333305875445281 -0.22332196024033468 -0.22331876900641201 -0.22331540569778988
leaf_weight=145.39068274665624 9.4500269179698062 22.205774566624314 7.3044889979064465 42.581706198863685 28.792771964566782 38.544908276759088 16.255710650002587 11.887870982522147 4.2140011040028211 6.131816904526203 14.22790352907032 42.555990383494645 17.348977782297879 12.99162113945931 15.602150345919656 5.2177185646723947 70.43907106295228 38.529863663716242 52.31870002578944 25.278366959653795 26.192045086761937 16.066869820933789 21.847634659148753 18.981922914972529 45.406938976841047 16.918583253398538 15.7355188827496 126.99489931436256 32.490518495673314 29.212234571808949 33.837142201839015 31.116411941125989 34.11588464747183 18.362143808277324 44.964979931712151 29.046980073675513 21.253957145381719 18.503209854941815 7.931134169688451 11.395240252371879 21.781498915050179 127.11400075559504 8.5977064894977939 24.944303912576288 56.682510127313435 24.865763043519109 18.638657161500305 8.9776160931214708 4.5485702967271209 5.3203986040316513 7.7431104145944145 12.692188579356296 14.619273338466881 10.219301430741325 5.8788077477365723 8.5401224412489665 7.3434633971191943 7.9201115106698126 9.0253521220292878 7.3489727729465839 4.0685242079198378 7.8448751685209563 14.104148336686196 13.870476085692646 5.8234134633094135 8.7907496714033169 14.236358550144358 4.3965222623664948 6.4865354588255277 4.841362154344095 4.8874239365104586 9.8349084090441448 4.0207320658955714 7.4988190617878017 4.2167849866673341 4.3225560656283077 3.3968083795625699 4.8888109871186316 3.5790002227295181 4.1337566371075809 11.181263331789522 4.0136594008654383 5.0388959900010368 6.4646826051175585 9.1790936996694654 8.4877129092346859 5.8528082016855461 7.1949239557143283 5.0579104970674953 7.9026716707739997 4.8138315728865591 5.3957286328077299 4.1590206755790842 4.0334513389971116 4.9345161174423993 6.289157912367954 4.0134641062468281 3.9937692652456462 3.5604615029878914 4.884252792224288 6.6498254882171723 3.3464816554915151 4.4432377500925213 3.2652205538470289 3.9390981448814273 3.9992341322358715 6.429902464849877 4.5082160474266848 4.7523314896970978 3.935756868915635 6.4318637717515221 6.0950970826670527 3.3604058974888167 4.0382518793921909 4.7512184553779644 3.5565975683275592 3.437432232545687 4.0094118849374345 5.9218486833851802 4.2643107548356083 3.403599341632801 3.4893354603555053 3.2867209557443857 3.5425781630910915 5.0613849628716707 3.3706696219742298 5.8545435001142323 3.4616551205981523 4.4028155943378833 6.1489385052118477 3.5041126732248813 3.2529124580323696 3.3915075396653256 3.3411525597330183 5.1087488937191647
leaf_count=1522 1761 190 899 914 1133 1266 1515 601 835 254 702 1104 1026 1456 1628 952 1482 1198 1928 1043 634 750 1192 1025 1231 1574 1548 623 1241 1147 1232 1039 1528 1534 1423 1136 1845 1332 952 1872 1248 1916 1503 1024 1436 1131 1398 907 747 890 1249 1547 1381 947 1180 1626 1189 1072 1079 633 1116 1546 907 1894 896 1209 811 1160 1596 1259 1266 1085 1052 667 1126 1193 983 1422 974 1151 1312 997 1060 1201 1124 1547 1348 1947 866 951 1039 1136 934 926 943 1683 1015 1069 968 1100 1715 1014 1142 911 1141 1169 1845 1315 1293 1163 1907 1737 992 1168 1350 1086 1038 1204 1786 1315 1025 1039 974 1091 1544 1015 1807 1055 1355 1903 1069 994 1047 1036 1591
